company_name_canonical,entry_share_delta_j3,entry_share_delta_j1,entry_share_delta_j2,ai_prevalence_delta_strict,ai_prevalence_delta_broad,desc_length_delta,tech_count_delta,org_scope_delta,breadth_resid_delta,credential_stack_depth_delta,panel_type
FIS,-0.14285714285714285,-0.03333333333333333,0.0,0.125,0.375,1002.4250000000002,3.5250000000000004,0.5833333333333333,4.811370854380014,0.13750000000000018,pooled_min5
L3Harris Technologies,0.24003623188405798,-0.014285714285714285,0.016666666666666666,0.0,0.016666666666666666,1520.8285714285712,0.2404761904761905,0.6476190476190478,-0.7622206669176235,0.2833333333333341,pooled_min5
Walmart,-0.27241379310344827,0.0,0.0,0.08163265306122448,0.35868533459895585,1863.3518272425254,-0.12990033222591357,0.5972947318462267,-1.1746024388286564,-0.20192216421452258,pooled_min5
Robinhood,0.3333333333333333,0.08333333333333333,0.0,-0.09722222222222221,-0.05555555555555555,328.2777777777783,1.2500000000000004,0.6527777777777779,1.122786066741471,-0.5416666666666665,pooled_min5
Eliassen Group,0.07142857142857142,0.0,0.0,0.10256410256410256,0.41025641025641024,1503.435897435898,2.7948717948717947,0.6837606837606838,0.9935784649314974,0.3803418803418799,pooled_min5
"TalentBurst, an Inc 5000 company",0.0,0.0,0.0,0.043478260869565216,0.43478260869565216,2767.5797101449275,5.05072463768116,0.9492753623188405,3.524056704837688,-0.4130434782608692,pooled_min5
"Kelly Science, Engineering, Technology & Telecom",0.6666666666666667,0.0,0.0,0.0,0.0,1569.0833333333333,1.3333333333333335,0.33333333333333337,0.14346920362801585,-0.16666666666666652,pooled_min5
IPolarity,0.0,0.0,0.0,0.4,0.4,299.56666666666683,-1.5333333333333332,1.6,-1.8842632068838623,1.4666666666666663,pooled_min5
"Pyramid Consulting, Inc",0.16666666666666666,0.0,0.0,0.12,0.6,910.2950000000001,3.380000000000001,0.92,1.8479212269535976,0.7549999999999999,pooled_min5
Prudential Financial,,0.07142857142857142,0.0,0.21428571428571427,0.2857142857142857,-1537.3896103896104,0.2597402597402585,-0.694805194805195,-0.9333328936993555,-0.5714285714285712,pooled_min5
New York Technology Partners,0.0,0.0,0.013513513513513514,0.06756756756756757,0.21621621621621623,545.4270270270272,2.813513513513513,0.7513513513513513,1.7241730732102076,0.5378378378378379,pooled_min5
Prime Video & Amazon MGM Studios,-0.14285714285714285,0.0,0.0,0.0,0.1,1447.9857142857145,-0.24285714285714288,0.1428571428571429,-1.295687446929056,-0.3857142857142857,pooled_min5
Fiserv,0.09090909090909091,0.0,0.0,0.0,0.26666666666666666,135.91111111111059,3.5555555555555554,2.066666666666667,3.673079270814142,0.9555555555555557,pooled_min5
Damco Solutions,0.0,0.0,0.0,0.2,0.5166666666666666,3032.2666666666673,3.2666666666666666,3.4333333333333336,3.198237740739291,2.2833333333333337,pooled_min5
Insight Global,0.0822222222222222,0.00488315312173003,0.0,0.08998953610045343,0.1848622253226369,607.3463550749912,2.77665387745611,0.5200558074642483,2.080360769432953,0.3214742471805603,pooled_min5
Optomi,0.0,0.043478260869565216,0.0,0.08695652173913043,0.28019323671497587,239.22705314009636,4.642512077294686,-0.15458937198067635,3.8531552914602565,0.09661835748792269,pooled_min5
Recruiting from Scratch,-0.03225806451612903,0.0,0.0,0.11654135338345864,0.6090225563909775,1443.3270676691727,-0.19548872180451138,1.4323308270676691,-2.868307225151847,-0.09398496240601428,pooled_min5
Genpact,0.0,0.0,0.0,0.0,0.6,2624.066666666666,1.4499999999999993,0.016666666666666607,1.4831935209334315,0.5333333333333337,pooled_min5
InfoVision Inc.,0.125,0.0,0.0,0.21052631578947367,-0.03947368421052633,-721.3223684210527,-1.0131578947368425,-0.3815789473684211,0.017266706604185167,-0.8486842105263159,pooled_min5
Ledgent Technology,-0.10384615384615385,0.02702702702702703,0.0,0.16216216216216217,0.24324324324324326,1420.0556438791732,4.081081081081081,1.4451510333863276,3.798053376084174,1.055643879173291,pooled_min5
Synechron,0.0,0.0,0.0,0.14705882352941177,0.27434077079107505,1417.5892494929003,3.2900608519269774,1.3392494929006085,3.392086508136032,0.13590263691683635,pooled_min5
MetroStar,0.037037037037037035,0.0,0.0,0.08888888888888889,0.26666666666666666,953.2444444444445,-2.5777777777777784,-0.6111111111111112,-4.83156596698845,-0.0777777777777775,pooled_min5
"IDR, Inc.",0.013986013986013984,0.0,0.0,0.13333333333333333,0.26666666666666666,227.68205128205113,1.258974358974359,1.5666666666666667,0.7959553328351902,0.5794871794871796,pooled_min5
Quantum World Technologies Inc.,0.0,0.0,0.0,0.16666666666666666,0.26190476190476186,833.8571428571429,1.4761904761904772,-0.2857142857142857,2.3552039009740975,0.23809523809523814,pooled_min5
WEX,-0.05714285714285716,0.0,0.0,0.0,0.3333333333333333,533.1130952380954,-0.8154761904761898,0.0714285714285714,-0.5300792055149208,0.25,pooled_min5
American Express,0.023809523809523808,0.0,0.05555555555555555,0.5,0.6666666666666666,2220.4047619047624,6.214285714285714,1.150793650793651,6.1132612271184605,-0.015873015873015817,pooled_min5
Ridgeline,0.16666666666666666,0.0,0.0,0.8,0.9,1187.6888888888889,1.488888888888889,1.8555555555555554,3.1661607880296585,1.5999999999999996,pooled_min5
KPMG US,0.2,0.0,0.13043478260869565,0.17391304347826086,0.6521739130434783,619.159420289855,5.817805383022774,-0.18150448585231194,3.684590938041962,-0.10213940648723252,pooled_min5
"LanceSoft, Inc.",-0.2222222222222222,-0.06666666666666667,0.0,0.07692307692307693,0.23076923076923078,598.1794871794871,3.7179487179487185,1.241025641025641,3.756130766107487,0.5487179487179485,pooled_min5
GE HealthCare,0.0,0.0,0.0,0.0,-0.016666666666666677,980.8500000000004,4.816666666666666,1.3333333333333333,3.8075184853541706,0.13333333333333286,pooled_min5
GM Financial,0.4166666666666667,-0.11666666666666665,0.0,0.1,0.23333333333333336,-1619.0500000000002,2.283333333333333,0.4166666666666667,-0.1285450154644927,-0.7833333333333332,pooled_min5
Tesla,0.5897435897435896,0.06559263521288838,0.0,0.13636363636363635,0.1766398158803222,92.18814729574206,2.4499424626006903,0.04027617951668572,0.23767379541397693,-0.7422324510932108,pooled_min5
Stellent IT,-0.027777777777777776,0.0,0.0,0.05651491365777081,0.036106750392464686,1182.6405023547882,3.243328100470957,0.9199372056514914,2.2002585315051006,0.09576138147566704,pooled_min5
Shield AI,-0.09090909090909091,0.0,0.0,0.18181818181818182,0.38636363636363635,207.80303030303094,0.7121212121212128,-0.14393939393939403,-0.32565578050683114,-1.0378787878787872,pooled_min5
Saransh Inc,0.0,0.07692307692307693,0.0,-0.034482758620689655,0.09283819628647216,454.2758620689656,2.273209549071619,0.41644562334217505,1.6978208100621022,0.9522546419098141,pooled_min5
Capgemini Engineering,-0.14285714285714285,0.0,0.0,0.14285714285714285,0.14285714285714285,1837.4705882352937,3.042016806722689,1.6218487394957983,2.041555621061984,1.3109243697478994,pooled_min5
Harvey Nash,0.25,0.0,0.0,0.16666666666666666,0.3333333333333333,-631.2666666666667,-1.0333333333333332,0.09999999999999998,0.08691578965287283,0.06666666666666643,pooled_min5
"Onyx Point, LLC.",0.0,0.0,0.0,0.0,0.2,-755.0666666666666,0.5999999999999996,-0.5568627450980392,1.3689770078851282,-1.3058823529411767,pooled_min5
Goliath Partners,0.0,0.0,0.0,0.08108108108108109,0.08108108108108109,-242.6872586872587,0.07335907335907343,0.6486486486486487,0.6812470652701457,0.011583011583011782,pooled_min5
Medtronic,0.09999999999999998,0.0,0.0,0.0,0.005952380952380952,5337.601190476191,0.1428571428571428,1.363095238095238,-0.7135490558302813,0.5119047619047619,pooled_min5
Vanguard,-0.10526315789473684,-0.05263157894736842,0.0,0.1111111111111111,0.1695906432748538,-1066.511695906433,-0.7134502923976607,0.30116959064327486,-2.259138929684306,-0.8099415204678371,pooled_min5
Lumicity,-0.16666666666666666,0.0,0.0,0.2,0.3090909090909091,100.4454545454546,0.9363636363636363,0.7090909090909091,0.27581318323247705,0.00909090909090926,pooled_min5
General Dynamics Information Technology,0.06349206349206349,0.0375,0.0125,0.0625,0.475,208.10773809523835,4.275,-0.005952380952380931,2.4269697084721598,-0.1482142857142854,pooled_min5
OneTrust,0.0,0.0,0.0,0.125,0.25,1576.375,3.125,-0.25,1.789269505850692,-0.625,pooled_min5
CBTS,0.0,0.0,0.0,0.0,0.0,-2259.366666666667,0.2999999999999998,1.5,3.1522640549021785,0.36666666666666714,pooled_min5
Bristol Myers Squibb,0.2857142857142857,0.0,0.0,0.5555555555555556,0.6666666666666666,1221.375,6.958333333333334,-0.45833333333333326,8.30966091592709,1.333333333333333,pooled_min5
Stripe,0.14393939393939398,0.16,0.0,0.0,-0.05391304347826087,1753.7669565217393,1.436521739130435,1.4852173913043478,2.4617661081298317,0.17217391304347807,pooled_min5
Raas Infotek,0.0,0.0,0.0,0.030303030303030304,0.12121212121212122,370.27272727272725,6.91919191919192,0.6363636363636364,7.277873228785587,0.4747474747474749,pooled_min5
Agility Partners,-0.25,-0.16666666666666666,0.0,-0.16666666666666666,-0.16666666666666666,5.3333333333332575,2.083333333333333,0.45833333333333337,1.3986331961390819,0.375,pooled_min5
DivIHN Integration Inc,0.4,0.18181818181818182,0.0,0.0,0.0,308.5974025974019,-1.1818181818181817,-0.22077922077922074,-3.7867877402973513,-0.11688311688311703,pooled_min5
"Miracle Software Systems, Inc",0.0,0.0,0.0,0.42857142857142855,0.42857142857142855,1913.309523809524,-0.5476190476190474,0.7857142857142858,-2.5053122131940437,1.119047619047619,pooled_min5
Snap Inc.,0.3,0.0,0.0,0.058823529411764705,0.17647058823529413,1402.6638655462184,-1.117647058823529,0.8823529411764706,-0.8634996556222385,0.3193277310924376,pooled_min5
Intuit,0.010256410256410262,0.050505050505050504,0.0,0.06060606060606061,0.47653000594177064,1265.551990493167,1.786690433749258,1.8520499108734403,1.0957602843430099,0.26440879382055904,pooled_min5
Leonardo DRS,0.1695906432748538,0.125,0.0,0.0,0.1875,-756.1611842105267,0.8092105263157894,-0.8585526315789473,-0.6617015171460752,-0.9605263157894735,pooled_min5
UST,-0.07142857142857142,0.047619047619047616,0.0,0.15821812596006143,0.3486943164362519,3052.8556067588324,3.519201228878649,0.6943164362519201,2.61670238883804,1.172043010752688,pooled_min5
Ztek Consulting,0.0,0.058823529411764705,0.0,0.058823529411764705,0.23529411764705882,685.7882352941176,4.211764705882353,0.8235294117647058,3.9965490504527925,0.4117647058823528,pooled_min5
"Liberty Personnel Services, Inc.",0.25,-0.02564102564102564,-0.02564102564102564,0.0,0.07692307692307693,869.5384615384617,2.205128205128205,0.28205128205128205,1.378766768517233,1.794871794871795,pooled_min5
"Syms Strategic Group, LLC (SSG)",0.0,0.0,0.0,0.0,0.0,4286.4613347457625,9.0,0.0,10.207498909462121,1.9088983050847457,pooled_min5
Experis,0.03548387096774194,-0.00883838383838384,0.0,0.06944444444444445,0.2222222222222222,752.905303030303,0.5151515151515147,0.5505050505050504,-0.8675072220280393,0.012626262626262985,pooled_min5
Motion Recruitment,-0.009312596006144397,0.004540525887774465,0.0,0.09243697478991597,0.2741257793439957,664.9158986175116,2.6061263214963404,0.6532258064516129,1.2389253088148369,0.3475196530224993,pooled_min5
Purple Drive Technologies LLC,-0.5,0.0,0.0,0.125,0.5,1664.275,5.225,1.175,3.9384527857802154,1.025,pooled_min5
Axiom Space,0.2,0.0,0.0,0.0,0.0,884.0,1.6,2.033333333333333,2.86596706772192,-0.15000000000000036,pooled_min5
"The Swift Group, LLC",0.058823529411764705,0.0,0.0,0.0,0.15625,3280.50625,1.6187500000000004,0.7875,0.17357287443324187,0.3312499999999998,pooled_min5
Visa,-0.13725490196078433,0.0547945205479452,0.0,0.2602739726027397,0.3835616438356164,225.31748589846848,4.564867042707494,0.6051571313456889,3.0214343993992676,-0.05721192586623669,pooled_min5
CGI,0.023255813953488372,0.02470355731225296,0.0,0.03409090909090909,0.14772727272727273,678.7667984189729,1.2396245059288535,1.0671936758893281,0.10983729505826823,0.3591897233201582,pooled_min5
Inceed,0.0,0.0,0.0,0.0,0.14285714285714285,476.8571428571431,2.2857142857142856,-0.8571428571428571,2.653926450985717,1.0,pooled_min5
Flex,0.0,0.0,0.0,0.0,0.125,303.70833333333303,5.541666666666667,1.25,6.070767727229516,1.0,pooled_min5
SPAR Information Systems LLC,0.0,0.0,0.0,0.2222222222222222,0.4444444444444444,1349.0277777777778,-0.18055555555555536,1.1944444444444444,-2.90325131798396,-0.4166666666666665,pooled_min5
My3Tech,0.0,0.0,0.0,0.2857142857142857,0.42857142857142855,-238.62857142857138,5.0,0.08571428571428569,4.63362315219759,0.08571428571428541,pooled_min5
ECS,0.2571428571428572,-0.07142857142857142,0.0,0.0,0.07142857142857142,498.67857142857156,5.821428571428572,1.1071428571428572,5.471996176313976,-0.6428571428571428,pooled_min5
Bose Corporation,,0.6,0.0,0.0,0.0,977.1999999999998,-0.125,1.5,-0.3190981963402688,-0.9500000000000002,pooled_min5
"Akraya, Inc.",0.0,0.0,0.0,0.0,0.15384615384615385,739.1384615384613,0.7846153846153849,0.4923076923076923,-1.632377839274461,-0.569230769230769,pooled_min5
Teradyne,0.1111111111111111,-0.11176470588235295,0.0,0.14705882352941177,0.2647058823529412,1684.0176470588235,1.5823529411764712,0.22352941176470587,0.4584814277651019,0.06470588235294095,pooled_min5
Equifax,0.1157894736842105,0.0,0.03333333333333333,0.2,0.26666666666666666,-21.033333333333303,0.1999999999999993,-0.2999999999999998,-2.603881204682331,-0.5,pooled_min5
Thermo Fisher Scientific,-0.047619047619047616,-0.16666666666666666,0.0,0.0,-0.04166666666666666,1182.1666666666665,4.0,1.0833333333333335,2.1950776818365765,0.08333333333333304,pooled_min5
Ehub Global Inc,0.0,0.0,0.0,-0.033333333333333354,-0.033333333333333354,878.6666666666667,5.3,-0.033333333333333354,3.5636761458600756,0.03333333333333366,pooled_min5
Palo Alto Networks,0.027619047619047616,-0.010101010101010102,0.0,0.20959595959595959,0.3061383061383061,806.0242812742808,7.493783993783994,0.5021367521367519,7.397213538468554,1.2212509712509712,pooled_min5
Brooksource,0.027777777777777776,0.05348346235045742,0.02040816326530612,0.12244897959183673,0.23715693173821253,920.4468684025337,3.2209711470795206,0.8958479943701618,1.9582584470679065,-0.25686136523574987,pooled_min5
Piper Companies,-0.0050167224080267525,0.0,0.0,0.07272727272727272,0.12196969696969698,-144.85757575757543,0.7424242424242422,0.22878787878787882,-0.7460095341832409,-0.5530303030303028,pooled_min5
Stealth Startup,0.016666666666666663,0.045454545454545456,0.0,0.13636363636363635,0.3227272727272727,989.3136363636365,3.45,0.6727272727272727,0.9067352203483816,0.4136363636363636,pooled_min5
General Dynamics Mission Systems,0.06060606060606061,0.12857142857142856,0.0,0.02857142857142857,0.04285714285714286,634.2063492063494,1.9936507936507937,0.10634920634920636,1.6037786263949383,-0.08571428571428541,pooled_min5
Avid Technology Professionals,-0.8,0.0,0.0,0.0,0.08333333333333333,-1256.0,2.375,0.08333333333333333,2.7573531404496174,1.5,pooled_min5
Rivian,0.1111111111111111,0.0,0.0,0.027777777777777776,0.10620915032679738,1571.8153594771238,-1.1535947712418304,0.6813725490196079,-1.5974053145565275,0.38562091503268014,pooled_min5
LTIMindtree,0.4,-0.07142857142857142,0.0,0.0,-0.08403361344537814,-1076.0798319327737,-0.6302521008403357,-0.39915966386554624,-2.1071222618889074,-0.2857142857142856,pooled_min5
IntePros,,0.0,0.0,0.08333333333333333,0.25,-665.2777777777778,4.111111111111112,0.9166666666666667,3.345365303976358,-0.9444444444444442,pooled_min5
Truveta,-0.2,0.0,0.0,0.033333333333333326,0.033333333333333326,-151.0,0.16666666666666696,0.5333333333333334,-0.6143107011561902,0.09999999999999964,pooled_min5
HCA Healthcare,-0.09090909090909091,0.0,0.0,0.11764705882352941,0.35294117647058826,299.20320855615046,5.336898395721925,0.5989304812834224,5.902393237172601,0.524064171122995,pooled_min5
Empower Professionals,0.0,0.0,0.0,0.0,0.2857142857142857,992.3428571428574,3.571428571428571,0.5428571428571429,2.4734341890165283,0.8142857142857145,pooled_min5
Phaxis,0.0,-0.1,0.0,0.2,0.3,98.40000000000009,1.6,0.6000000000000001,0.9100929836675505,0.7999999999999998,pooled_min5
FastTek Global,-0.125,0.0,0.0,0.21428571428571427,0.24603174603174605,2234.3333333333335,2.734126984126984,0.992063492063492,1.7075206111372299,0.23809523809523814,pooled_min5
Luxoft,0.0,0.0,0.0,0.09090909090909091,0.09090909090909091,168.010695187166,3.4652406417112305,0.25668449197860965,1.4660930753842656,-1.2299465240641712,pooled_min5
Smart IT Frame LLC,0.0,0.0,0.0,-0.07954545454545454,0.011363636363636354,1076.5113636363635,1.4886363636363633,0.4772727272727273,0.37287691816237833,0.30681818181818166,pooled_min5
Siemens,-0.05555555555555555,-0.1,0.0,0.3157894736842105,0.42105263157894735,-1538.1578947368425,3.3736842105263163,0.43684210526315786,3.6734432214886086,0.12105263157894797,pooled_min5
Freeform,0.0,0.16666666666666666,0.0,0.08333333333333333,0.5833333333333334,93.85714285714312,1.333333333333333,0.35714285714285715,1.1455045195959719,-0.4047619047619042,pooled_min5
Hexaware Technologies,0.0,0.0,0.0,0.2222222222222222,0.1111111111111111,761.6666666666665,1.7222222222222232,0.6111111111111112,2.2450708560617634,1.4444444444444442,pooled_min5
DataAnnotation,,0.0,0.0,0.0,0.676056338028169,1027.3573943661972,4.225352112676056,0.0,3.124133983040893,0.790492957746479,pooled_min5
SSi People,0.0,0.0,0.0,0.09090909090909091,0.8181818181818182,693.0363636363636,2.4,0.12727272727272732,0.46124800056010695,1.0909090909090908,pooled_min5
Infosys,0.05582922824302135,-0.023809523809523808,0.0,0.0,0.47619047619047616,900.065714285714,4.2838095238095235,-0.15714285714285725,2.3566776593091516,-0.34761904761904727,pooled_min5
Goldman Sachs,-0.056896551724137934,-0.02857142857142857,0.06938775510204083,0.14285714285714285,0.23673469387755103,194.03265306122466,2.848979591836735,0.29387755102040813,2.341980774950065,-0.1877551020408159,pooled_min5
Amazon,0.04255573486342719,-0.0014912064936662209,0.0,0.014927438199483459,0.26574222112901247,1192.7565182634362,1.3578280654286066,0.6684140942073545,0.5128306978501551,0.08756610503013196,pooled_min5
"Donato Technologies, Inc.",0.0,0.0,0.0,0.35833333333333334,0.5583333333333333,882.2583333333334,2.958333333333333,-0.04999999999999999,2.0067977556685617,0.2666666666666666,pooled_min5
U.S. Bank,0.13636363636363635,0.05405405405405406,0.0,0.10810810810810811,0.16216216216216217,716.7756756756762,0.9027027027027028,0.5216216216216216,-1.547336344521221,-0.18108108108108034,pooled_min5
The Judge Group,-0.029411764705882353,0.0,0.0,0.11764705882352941,0.2684766214177979,784.2428355957768,2.3770739064856716,0.18250377073906476,0.5513795461580702,-0.687782805429864,pooled_min5
Parsons Corporation,0.16666666666666669,0.1724137931034483,0.0,0.0,-0.028017241379310345,508.84698275862047,2.420258620689655,0.6314655172413792,3.8445055437635047,0.7047413793103452,pooled_min5
LER TechForce,0.3333333333333333,0.0,0.0,0.0,0.09090909090909091,404.60606060606096,4.7727272727272725,1.3636363636363635,5.497575568584676,0.7121212121212124,pooled_min5
Confidential,0.0,0.0,0.0,0.0,0.125,101.77500000000009,-0.875,0.775,-1.1591165607878229,0.15000000000000036,pooled_min5
World Wide Technology,-0.11764705882352941,0.0,0.0,0.0,-0.041666666666666664,3666.125,-1.4444444444444442,0.7638888888888891,-3.3075973585388274,0.7777777777777781,pooled_min5
TALENT Software Services,0.05555555555555555,-0.07142857142857142,0.0,0.13333333333333333,0.2,402.2333333333331,-0.4761904761904763,0.42380952380952375,-2.657580371060697,-0.047619047619047894,pooled_min5
Sev1Tech LLC,0.0,0.0,0.0,0.0,0.42857142857142855,1569.6190476190482,12.952380952380953,0.47619047619047616,12.770266570496064,1.6666666666666665,pooled_min5
Base-2 Solutions,0.058823529411764705,0.1,0.0,0.0,0.13333333333333333,535.6285714285714,5.595238095238095,0.5238095238095237,5.6265782047101265,0.4619047619047616,pooled_min5
Aurora,0.2727272727272727,0.0,0.0,0.0,-0.11956521739130435,-1437.277173913043,1.2934782608695654,0.75,1.360588086913829,0.43478260869565233,pooled_min5
ASRC Federal,0.2222222222222222,0.03535353535353536,0.0,0.0,0.09090909090909091,1108.0151515151515,3.237373737373737,0.12121212121212122,0.06454743228998439,-0.5606060606060606,pooled_min5
Wipro,0.06818181818181818,0.0,0.0,0.18181818181818182,0.3181818181818182,1570.818181818182,2.075757575757576,1.1161616161616161,-0.9343649748199996,0.8484848484848482,pooled_min5
STR,0.0,0.0,0.0,0.0,0.17391304347826086,-261.06521739130403,-4.391304347826087,-0.4782608695652174,-2.8649172694078846,0.8967391304347823,pooled_min5
Primary Talent Partners,0.08333333333333331,0.0,0.08333333333333333,0.25,0.3333333333333333,1789.9,8.416666666666666,0.4666666666666666,8.01249403995925,0.6499999999999999,pooled_min5
Unisys,0.0,0.05,0.0,-0.15000000000000002,0.15000000000000002,-1201.9499999999998,3.0999999999999996,0.65,3.430374522989474,-0.4499999999999993,pooled_min5
Pacific Life,-0.1857142857142857,0.0,0.0,0.15789473684210525,0.21052631578947367,-87.73684210526335,-1.6090225563909772,0.015037593984962516,-2.093322377400948,0.1353383458646622,pooled_min5
Two Six Technologies,0.5,0.07142857142857142,0.0,0.0,0.0,2597.9285714285716,2.8571428571428568,0.28571428571428575,1.1662654258364198,-0.35714285714285765,pooled_min5
The Depository Trust & Clearing Corporation (DTCC),-0.6,0.0,0.0,-0.2,-0.2,1498.7199999999998,-1.5599999999999996,0.39999999999999997,0.31076854500484363,0.4400000000000004,pooled_min5
GEICO,0.047619047619047616,0.0,0.0,0.2714285714285714,0.34285714285714286,2629.3920634920632,-1.2888888888888896,1.5015873015873014,-1.0588462409017527,0.015873015873015817,pooled_min5
Archer,0.0,0.05263157894736842,0.0,0.10526315789473684,0.3684210526315789,1432.2315789473687,2.663157894736843,0.49473684210526314,-0.6754237712351933,-0.8105263157894735,pooled_min5
Siri InfoSolutions Inc,0.0,0.0,0.0,0.0,0.36363636363636365,-19.022727272727252,4.943181818181818,0.32954545454545453,3.861691514502577,0.10227272727272707,pooled_min5
State Farm,0.3333333333333333,0.08333333333333333,0.0,0.0,-0.43333333333333335,53.03333333333285,0.9166666666666661,0.5833333333333334,0.2037280518463631,-0.16666666666666652,pooled_min5
hackajob,0.10714285714285714,0.019011406844106463,0.0,0.08365019011406843,0.043346007604562725,3265.913307984791,1.2779467680608372,0.7015209125475286,0.21664679811926646,1.0764258555133086,pooled_min5
myGwork - LGBTQ+ Business Community,-0.08333333333333334,-0.05989583333333333,0.0078125,0.109375,0.328125,2479.09375,0.27083333333333304,1.2109375,1.44897642548431,1.2005208333333335,pooled_min5
Jobot,0.16111111111111112,0.01664212076583211,0.0,0.06421207658321061,0.23549337260677466,350.17628865979395,1.5229749631811487,0.5444771723122239,-0.38744661572703115,-0.2179675994108985,pooled_min5
CyberCoders,-0.011402027027027029,0.014705882352941176,0.0,0.08088235294117647,0.20133414190418436,1296.2801697998789,1.175560946027896,0.5156913280776227,0.42234972782612634,0.6954214675560944,pooled_min5
CACI International Inc,0.18181818181818182,0.07023411371237458,0.0,0.10869565217391304,0.24163879598662208,1287.1688963210709,4.648829431438128,0.15969899665551834,4.253221514895999,0.25,pooled_min5
Rose International,-0.1,-0.1,0.0,0.1,0.30000000000000004,1504.9666666666662,5.299999999999999,0.7666666666666666,4.017832764957294,0.13333333333333375,pooled_min5
HCLTech,-0.14285714285714285,-0.058823529411764705,0.0,0.10526315789473684,0.10526315789473684,1564.622291021672,2.6439628482972135,0.37151702786377705,1.022620000318978,1.3374613003095979,pooled_min5
"Intelliforce-IT Solutions Group, LLC.",0.0,0.07142857142857142,0.0,0.0,0.07142857142857142,4552.660714285715,3.1428571428571423,0.6785714285714286,0.23990732584836016,1.4642857142857144,pooled_min5
Apex Systems,-0.03610389610389611,-0.02066590126291619,0.0,0.0845771144278607,0.21393034825870647,4474.656142365098,3.2422502870264065,0.8968618446230388,0.6917151476757639,0.3159203980099501,pooled_min5
Oracle,-0.08333333333333334,0.0,0.0,0.0,0.10354609929078014,729.4226950354614,0.6113475177304961,0.2879432624113475,-0.03558827389519932,0.0375886524822695,pooled_min5
TekSynap,0.0,0.125,0.0,0.0,0.0,-123.64999999999964,3.7,0.15,0.16415560912376037,-0.3250000000000002,pooled_min5
Ampstek,0.0,0.0,0.0,0.125,0.11249999999999999,343.32500000000005,3.875,0.07500000000000001,0.9528412543462343,-0.08749999999999991,pooled_min5
SMX,0.38461538461538464,0.14814814814814814,0.0,0.037037037037037035,-0.0888888888888889,1278.7481481481477,3.014814814814815,0.8814814814814814,3.0486442283402604,0.1925925925925922,pooled_min5
Talener,-0.2,0.0,0.0,0.42857142857142855,0.5476190476190477,535.3333333333333,1.8571428571428577,0.6904761904761905,2.1684148444724887,1.7142857142857144,pooled_min5
Jobs via eFinancialCareers,0.2745098039215686,0.03225806451612903,0.0,0.1158357771260997,0.24486803519061584,372.6392961876836,1.4956011730205283,1.1891495601173019,0.8214221146514854,-0.03372434017595349,pooled_min5
Verkada,0.13636363636363635,0.07894736842105263,0.0,0.0,0.20175438596491227,1333.2763157894733,-0.27192982456140413,0.41666666666666663,-1.2253263245731516,0.21491228070175472,pooled_min5
Fanatics,0.2222222222222222,0.027777777777777776,0.027777777777777776,0.08333333333333333,0.19444444444444445,170.1388888888887,3.0999999999999996,-0.5166666666666666,-4.312411897595092,-0.094444444444445,pooled_min5
Ascendion,0.1090909090909091,0.0,0.0,0.16666666666666666,0.5833333333333334,579.5384615384614,0.7371794871794872,0.7820512820512822,-1.5700311091212276,1.1089743589743595,pooled_min5
Fortinet,-0.09090909090909091,0.11666666666666668,0.0,0.0,0.2,2657.766666666667,4.916666666666667,0.7166666666666667,-0.5931768455457975,0.3833333333333333,pooled_min5
KTek Resourcing,0.0,0.0,0.0,0.3,0.4,839.4333333333332,0.5999999999999996,-0.2,-1.403634212714146,0.3999999999999999,pooled_min5
Trimble Inc.,0.3012820512820513,-0.06390977443609022,0.0,0.18421052631578946,0.4285714285714286,1554.4548872180449,-1.2180451127819545,0.2293233082706767,-2.1886630527622466,-0.02631578947368407,pooled_min5
Huntington National Bank,0.0,0.0,0.0,0.18181818181818182,0.36363636363636365,2309.0519480519483,3.9350649350649345,2.857142857142857,5.295014300913888,1.337662337662338,pooled_min5
Ford Motor Company,0.03225806451612903,0.019230769230769232,0.0,0.057692307692307696,0.024725274725274735,1011.7472527472528,-2.7664835164835173,1.3324175824175823,-3.4421013341058755,-0.23901098901098905,pooled_min5
BCforward,0.0,0.0,0.0,0.1276595744680851,0.23404255319148937,712.6595744680849,0.7888707037643208,0.25368248772504093,-0.18966677129349352,0.3175122749590833,pooled_min5
MongoDB,0.0,0.0,0.0,0.08695652173913043,0.5652173913043478,402.04347826086996,4.069565217391305,0.8869565217391304,5.484739415613955,0.7565217391304344,pooled_min5
Lennar,0.01785714285714285,0.0,0.0,0.058823529411764705,0.16911764705882354,2336.176470588235,2.617647058823529,1.3382352941176472,3.6987587152151717,-0.20588235294117663,pooled_min5
Tech Consulting,0.33333333333333337,0.25274725274725274,0.0,0.0,0.0,-2205.2857142857147,-3.2747252747252746,0.17582417582417587,-2.3354657780520856,-0.9340659340659343,pooled_min5
CAE,0.0,0.16666666666666666,0.0,0.16666666666666666,0.16666666666666666,722.916666666667,11.166666666666666,0.25,7.962381391592164,-0.583333333333333,pooled_min5
Saragossa,,0.0,0.0,0.06666666666666667,0.2,-723.8666666666666,0.33333333333333304,0.30000000000000004,1.147176838964925,0.5999999999999999,pooled_min5
Cisco,0.03809523809523807,0.15294117647058825,0.0,0.1411764705882353,0.00588235294117645,3405.2784313725497,2.6568627450980387,-0.14313725490196094,1.4569317581256311,0.9117647058823533,pooled_min5
FanDuel,0.4,0.0,0.0,0.2,-0.13333333333333336,242.0,4.733333333333333,2.0,5.516756763360352,-0.13333333333333375,pooled_min5
Nityo Infotech,0.0,0.0,0.0,0.0,0.5714285714285714,2351.114285714286,0.8857142857142852,1.2857142857142858,-1.9337868208271909,0.11428571428571432,pooled_min5
AllSTEM Connections,-0.1111111111111111,0.0,0.0,0.0,0.0,826.2525252525252,-4.797979797979798,0.9595959595959596,-3.7632500148428196,0.6969696969696964,pooled_min5
Lorven Technologies Inc.,0.05263157894736842,0.0,-0.12903225806451613,0.0392156862745098,0.058823529411764705,295.8987982289691,2.7065148640101198,-0.012017710309930485,0.9625780089467968,-0.49209361163820375,pooled_min5
"V-Soft Consulting Group, Inc.",0.0,0.0,0.0,0.36363636363636365,0.5454545454545454,118.07177033492826,4.392344497607655,0.009569377990430616,0.9814171101005615,-0.7511961722488039,pooled_min5
Cognizant,0.0,-0.05,0.0,0.04918032786885246,0.13114754098360656,-839.3893442622953,2.7122950819672136,0.6754098360655738,2.959833380567038,0.5327868852459012,pooled_min5
Optiver,0.5,0.0,0.0,0.0,0.0,-0.27777777777828305,0.22222222222222232,-2.0,-0.8444405988409946,-0.5,pooled_min5
Protingent,0.0,0.0,0.0,0.0,0.125,809.5416666666665,0.31944444444444464,0.7777777777777778,-0.3812224439416074,-0.44444444444444464,pooled_min5
KLA,-0.0756302521008404,-0.20454545454545453,0.0,0.13636363636363635,0.23106060606060605,1383.719696969697,2.28030303030303,0.2840909090909091,0.8530536641785504,0.34090909090909083,pooled_min5
"Modern Technology Solutions, Inc. (MTSI)",0.15384615384615385,0.15789473684210525,0.0,0.0,0.0,-1233.5855263157891,2.5131578947368425,-0.06578947368421051,2.6835316639901405,0.3421052631578947,pooled_min5
SynergisticIT,,0.0,0.0,0.0,0.8947368421052632,775.2982456140348,-4.859649122807018,0.3684210526315789,4.437000902767704,-1.0526315789473684,pooled_min5
Honeywell,-0.024999999999999994,-0.003119429590017826,0.0,0.23529411764705882,0.27450980392156865,2163.832887700535,5.555258467023172,0.6916221033868092,4.742809398946804,0.428698752228164,pooled_min5
"Sunrise Systems, Inc.",-0.0625,0.0,0.0,0.0,0.11904761904761904,246.42857142857156,0.4761904761904763,0.47619047619047616,0.34167531079807634,0.07142857142857162,pooled_min5
Amentum,0.0888888888888889,0.16666666666666666,0.0,0.0,0.0,462.16666666666697,4.5,0.5,3.7206549734003707,0.16666666666666696,pooled_min5
SciTec,0.125,0.0,0.0,0.0,0.0,1510.2142857142853,3.5178571428571432,0.125,1.9444897028917316,-0.39285714285714324,pooled_min5
The Hartford,-0.125,0.0,-0.1111111111111111,0.3125,0.4375,328.8888888888887,4.361111111111111,-0.3055555555555556,2.5392705754625595,0.10416666666666696,pooled_min5
Snowflake,0.20689655172413793,0.024390243902439025,0.0,0.168806161745828,0.5083440308087293,1131.1309370988447,0.42362002567394086,0.11681643132220798,-0.3283384958316947,0.23555840821566054,pooled_min5
Liberty Mutual Insurance,0.0,0.0,0.0,-0.2,0.0222222222222222,877.8888888888887,-2.2666666666666666,0.7333333333333333,-2.5902708275504915,-0.48888888888888893,pooled_min5
Textron Systems,0.3333333333333333,0.0,0.0,0.0,0.0,1399.4666666666672,3.5999999999999996,1.1,3.371608816450352,0.13333333333333286,pooled_min5
The Trade Desk,-0.14285714285714285,0.0,0.0,0.15789473684210525,0.21052631578947367,540.3403508771935,0.12982456140350962,1.8912280701754387,0.6862633153746862,0.9368421052631577,pooled_min5
Boeing,-0.012711864406779655,-0.06810035842293906,-0.14695340501792115,0.010752688172043012,-0.07885304659498207,688.1433691756274,2.5555555555555554,0.917562724014337,2.829017452478741,0.15053763440860202,pooled_min5
Prohires,0.0,0.0,0.0,0.125,0.25,-2088.425,-0.8499999999999996,0.32499999999999996,-0.80313831035531,-1.625,pooled_min5
Orion Innovation,-0.125,-0.125,0.0,0.0,0.16666666666666666,-450.4166666666665,-1.833333333333333,-0.041666666666666685,-3.9595608696105664,-1.5833333333333335,pooled_min5
VDart,0.0,0.0,0.0,0.24,0.44,861.6266666666668,5.119999999999999,1.4177777777777778,5.957775747781938,1.3511111111111114,pooled_min5
"American Unit, Inc",0.0,0.0,0.0,0.02777777777777779,0.1527777777777778,74.84722222222217,1.5138888888888893,0.5416666666666667,-0.9095522024668768,-0.13888888888888884,pooled_min5
Acro Service Corp,-0.07142857142857145,0.0,0.0,0.0,0.0,-420.05357142857156,2.071428571428571,-0.48214285714285715,0.3753014890620232,-0.3214285714285716,pooled_min5
Bowman Williams,-0.06666666666666667,0.0,0.0,0.0,0.0,-986.4901960784314,-1.588235294117647,0.023529411764705882,-0.7179974547486792,-1.6588235294117646,pooled_min5
"Conch Technologies, Inc",0.0,0.0,0.0,0.25,0.30514705882352944,302.8088235294117,3.338235294117647,-0.16544117647058826,0.9212204493969747,0.1911764705882355,pooled_min5
Michael Page,,0.0,0.0,0.0,0.0,331.83333333333303,3.5,0.6666666666666666,1.9956069586093015,-0.3333333333333335,pooled_min5
Scientific Research Corporation,0.0,0.0,0.0,0.0,-0.047619047619047616,1116.8571428571431,1.3809523809523805,0.6666666666666666,0.508096392100116,0.38095238095238093,pooled_min5
Harnham,0.08333333333333333,0.0,0.0,0.19976359338061464,0.34397163120567376,572.3226950354608,1.8215130023640658,1.1891252955082743,1.686545188659808,0.670212765957447,pooled_min5
Belcan,-0.058823529411764705,0.0,0.0,0.0,0.0,-635.4666666666667,-2.1714285714285717,-0.14285714285714285,-2.496450760164976,-0.11428571428571432,pooled_min5
Guidehouse,0.2,-0.07692307692307693,0.0,0.1,0.25,2156.7192307692303,4.661538461538461,0.5269230769230768,2.4690540406958137,0.23461538461538467,pooled_min5
Peterson Technology Partners,0.0,0.0,0.0,0.3333333333333333,0.8333333333333334,3104.333333333333,2.5,-0.16666666666666674,0.20534797170237873,-1.166666666666667,pooled_min5
"BAE Systems, Inc.",0.0002836879432624173,0.01648351648351648,0.0,0.014285714285714285,0.01648351648351648,-669.3192307692307,0.9714285714285715,0.1313186813186813,0.5857709596269989,-0.027472527472528263,pooled_min5
"Veridian Tech Solutions, Inc.",0.0,0.0,0.0,0.0,0.2222222222222222,1045.3333333333335,2.977777777777778,0.7777777777777778,2.6370717336856195,1.1555555555555554,pooled_min5
Lyft,-0.08333333333333333,0.0,0.0,0.125,0.1875,444.57692307692287,-0.7163461538461542,-0.014423076923076872,0.03057916818350992,0.7211538461538458,pooled_min5
Intuitive,0.09090909090909091,-0.24411764705882355,0.0,0.0,0.25,1386.50294117647,0.7735294117647062,0.050000000000000044,0.32505941661962146,0.07941176470588207,pooled_min5
Themesoft Inc.,0.0,0.0,0.0,0.15384615384615385,0.3076923076923077,693.4000000000001,6.907692307692308,-0.10769230769230775,4.809291706022115,-0.523076923076923,pooled_min5
Lawrence Harvey,0.39999999999999997,0.0,0.0,0.14285714285714285,0.0,909.5714285714287,-0.28571428571428603,0.5714285714285714,-1.607360252418279,0.2857142857142856,pooled_min5
Booz Allen Hamilton,0.2430939226519337,0.008875739644970414,0.0,-0.058579881656804736,0.04497041420118342,-759.8437869822483,3.1289940828402374,0.6485207100591717,2.739820571307766,0.18934911242603558,pooled_min5
ByteDance,0.3105590062111801,0.48533724340175954,0.0,0.019061583577712607,0.1605571847507331,1806.7521994134895,1.4347507331378306,0.27199413489736074,-0.38903477721492297,-0.010997067448680564,pooled_min5
TEKsystems,-0.03924418604651163,0.0,0.0,0.10833333333333334,0.3,3017.7954301075274,2.423655913978495,0.7887096774193548,1.609387676924352,1.5048387096774198,pooled_min5
Innova Solutions,0.0,0.0,0.0,0.15789473684210525,0.5701754385964912,1349.438596491228,2.280701754385965,-0.19298245614035087,-0.7092774320861697,-0.9122807017543857,pooled_min5
System Soft Technologies,-0.16666666666666666,0.0,0.0,0.0,0.0,330.58333333333326,5.25,-0.08333333333333334,2.637072166608824,-0.625,pooled_min5
Raytheon,0.2828128189426414,0.015873015873015872,0.007936507936507936,0.0,-0.019460752337464665,1541.2021091541637,1.2835398999782557,0.12046096977603832,-0.32640070850156766,-0.5040226136116552,pooled_min5
Lockheed Martin,0.21428571428571427,0.07329842931937172,0.015706806282722512,0.020942408376963352,0.07329842931937172,1994.1931693656397,4.488615609399733,0.42536223061000855,3.648282375918881,1.9778400097406552,pooled_min5
Curtiss-Wright Corporation,0.3333333333333333,0.1111111111111111,0.0,0.0,0.0,1106.7111111111117,-0.9111111111111112,0.5777777777777777,-1.6942477277580146,-0.1333333333333333,pooled_min5
Signify Technology,-0.1590909090909091,0.0,0.0,-0.11904761904761904,0.26190476190476186,2227.190476190476,3.095238095238095,1.8571428571428574,2.048676100465464,0.4285714285714284,pooled_min5
Capgemini,0.03773584905660377,0.006993006993006993,0.027972027972027972,0.07540285801155366,0.18029796290665856,3045.2374581939803,1.595925813317117,1.2107023411371238,-0.5241280680980369,0.5202189115232589,pooled_min5
First Soft Solutions LLC,0.0,0.0,0.0,0.2,0.2,549.6333333333332,0.4666666666666668,0.5,-2.9686992767884246,0.6000000000000001,pooled_min5
Cloudflare,0.17647058823529413,0.040485829959514164,0.0,0.05263157894736842,0.48785425101214575,569.8178137651821,1.6740890688259107,0.6761133603238867,1.1131336650991206,0.8502024291497978,pooled_min5
Fannie Mae,-0.375,0.0,0.0,0.0,0.4,1723.9250000000002,-0.7000000000000002,3.7750000000000004,3.085819094933802,0.5499999999999998,pooled_min5
Kforce Inc,-0.11520323377498315,-0.028282828282828285,0.0,0.07676767676767676,0.5535353535353535,609.4626262626266,2.6505050505050507,0.5171717171717172,1.7022432227519455,0.20808080808080787,pooled_min5
"Mission Technologies, a division of HII",-0.021414665801427646,-0.015546218487394962,0.0,0.11428571428571428,0.2848739495798319,906.0205882352939,5.913025210084034,-0.022268907563025242,5.504763437937468,0.13193277310924323,pooled_min5
US Tech Solutions,-0.75,0.0,0.0,0.07142857142857142,0.07142857142857142,-127.07142857142844,4.928571428571429,0.6785714285714286,3.695214645938458,-1.0,pooled_min5
SPECTRAFORCE,0.0,0.0,0.0,0.0776470588235294,0.1952941176470588,-2115.4799999999996,2.3882352941176466,0.5717647058823531,3.0463786519298814,-0.4658823529411764,pooled_min5
GliaCell Technologies,-0.041666666666666664,-0.038461538461538464,0.0,0.0,-0.038461538461538464,1676.8000000000002,2.6923076923076925,0.16153846153846155,-0.8475278422575112,-0.17692307692307674,pooled_min5
Radley James,-0.6666666666666666,-0.42857142857142855,0.0,0.1,0.3,587.9857142857143,1.0,0.9571428571428573,0.8780463253057031,0.9714285714285715,pooled_min5
Precision Technologies,-0.2,0.0,0.0,0.14285714285714285,0.14285714285714285,66.16666666666674,5.928571428571429,-0.23809523809523808,4.7379216824608665,-1.2857142857142856,pooled_min5
Accenture,0.03409090909090909,0.0,0.0,0.08615819209039548,0.18785310734463279,1731.4152542372885,3.165254237288135,0.9350282485875706,-0.30890188084314096,0.11864406779660985,pooled_min5
Uber,0.08700209643605872,0.01990049751243781,0.004975124378109453,0.06467661691542288,0.23217247097844113,471.8905472636816,2.013266998341625,1.1144278606965177,3.7791152543867863,0.2769485903814264,pooled_min5
Qualcomm,-0.5,0.017241379310344827,0.0,0.017241379310344827,-0.04482758620689656,1487.0298850574718,1.1735632183908047,0.10689655172413792,-0.4213680850192696,-0.5011494252873563,pooled_min5
Sierra Space,0.2,0.0,0.0,0.0,0.0,1403.205533596838,4.624505928853754,0.2134387351778656,4.4777474817783,0.379446640316206,pooled_min5
The Intersect Group,0.0,0.0,0.0,0.0,0.4,1275.8000000000002,6.6,2.8,6.742261465040347,1.1999999999999997,pooled_min5
Zscaler,-0.07142857142857142,0.0,0.0,0.0,0.6666666666666666,2512.02380952381,2.746031746031746,0.6825396825396826,0.26133077195188936,-0.33333333333333304,pooled_min5
ICE,-0.024456521739130432,-0.019230769230769232,0.0,0.3076923076923077,0.3076923076923077,-53.55769230769238,1.134615384615385,0.21153846153846145,2.0328365840762572,0.4038461538461542,pooled_min5
Fidelity Investments,-0.16666666666666666,0.0,0.0,0.018518518518518517,0.12962962962962962,-1385.3569604086852,-1.2247765006385691,0.6015325670498085,-1.210564168818553,0.332694763729247,pooled_min5
Datadog,0.0,0.0,0.0,0.21428571428571427,0.7857142857142857,1533.1428571428578,-1.4285714285714288,0.5714285714285715,-2.0741863308549076,0.8571428571428568,pooled_min5
Intellectt Inc,-0.06451612903225806,-0.03333333333333333,0.0,0.3333333333333333,0.4166666666666667,214.375,4.002777777777778,0.575,3.116223318833791,0.6138888888888889,pooled_min5
Northrop Grumman,0.168430636167065,-0.003236245954692557,0.019614464612354016,0.0,-0.019417475728155338,543.9776276910088,2.5143379766427465,0.14996482341353595,1.0356720756921534,-0.3938370620514986,pooled_min5
Abbott,0.42737094837935174,0.18181818181818182,-0.01818181818181818,0.06060606060606061,0.05454545454545455,-854.2848484848482,1.4666666666666668,0.054545454545454675,0.651519625055778,-0.40000000000000036,pooled_min5
BioSpace,0.040000000000000036,0.0,0.0,0.16216216216216217,0.3383783783783784,1301.1437837837839,5.237837837837839,0.29729729729729737,3.410593715549197,0.21297297297297302,pooled_min5
Trane Technologies,0.2222222222222222,-0.1111111111111111,0.0,0.0,-0.0111111111111111,1150.8000000000002,2.2777777777777777,-0.21111111111111114,-2.567172640021312,-0.9555555555555557,pooled_min5
Franklin Fitch,0.0,0.0,0.0,0.10526315789473684,0.15789473684210525,513.2526315789473,2.1105263157894734,1.5842105263157893,0.6966076471626144,2.0842105263157893,pooled_min5
Amtex Systems Inc.,0.125,0.0,0.0,0.10526315789473684,0.10526315789473684,268.32388663967595,1.6882591093117405,0.7935222672064777,2.19669955897951,1.0364372469635628,pooled_min5
York Space Systems,0.2857142857142857,0.16666666666666666,0.0,0.0,0.0,716.2261904761904,1.7619047619047614,0.4404761904761905,1.4484348281768065,0.03571428571428559,pooled_min5
Entegee,0.16666666666666666,0.1,0.0,0.0,0.0,561.0571428571429,-1.0,0.3,-2.6893055804737287,0.1428571428571428,pooled_min5
SAIC,0.13615560640732266,0.09375,0.0,0.0,0.1875,759.3097826086955,4.9646739130434785,0.3342391304347826,4.5655903011897045,0.07744565217391308,pooled_min5
Labcorp,0.0,0.0,0.0,0.16666666666666666,0.5,1073.2333333333327,-5.066666666666667,1.4666666666666666,-5.757195711455386,-0.7666666666666666,pooled_min5
AbbVie,-0.05714285714285716,0.0,0.1,0.1,0.30000000000000004,1735.8000000000002,6.5,0.5,6.168849466559628,0.1999999999999993,pooled_min5
Databricks,-0.1372549019607843,0.0,0.0,0.13333333333333333,0.3333333333333333,474.39999999999964,-2.3952380952380956,0.6261904761904762,-2.7948996810850004,0.3452380952380949,pooled_min5
Crusoe,0.16666666666666666,0.07692307692307693,0.0,0.11538461538461539,0.6153846153846154,1238.711538461538,-3.634615384615385,0.9423076923076923,-4.444676549315936,-0.4326923076923075,pooled_min5
ServiceNow,-0.3611111111111111,0.0,0.0,0.42105263157894735,0.7894736842105263,600.2789473684206,3.5578947368421048,0.9789473684210527,4.893596539507741,1.473684210526316,pooled_min5
Keylent Inc,-0.0625,0.0,0.0,-0.022727272727272728,0.14393939393939392,353.50757575757575,1.9924242424242422,0.37121212121212116,1.9062448824051699,1.477272727272727,pooled_min5
The Walt Disney Company,-0.02040816326530612,0.014492753623188406,0.028985507246376812,0.17391304347826086,0.40068201193520886,1211.080988917306,2.200341005967605,0.845694799658994,0.8657370152714052,-0.2020460358056262,pooled_min5
Collins Aerospace,0.37037037037037035,0.01818181818181818,0.0,0.0,0.03636363636363636,1061.8532650448142,3.41741357234315,-0.08834827144686308,0.995708883907533,-0.7492957746478872,pooled_min5
Compunnel Inc.,-0.05714285714285714,0.0,0.0,0.06976744186046512,0.11627906976744186,22.571220930232585,1.9297480620155048,0.6875,1.8674122202522703,-0.04215116279069786,pooled_min5
Addison Group,0.14285714285714285,0.125,0.0,0.0,0.375,411.25,1.3125,0.875,0.7786208841255635,-0.3125,pooled_min5
Captivation,0.0,-0.0975609756097561,0.0,0.0,0.13043478260869565,336.6532343584304,2.176033934252386,0.03287380699893955,-0.42152082294670246,-0.564156945917285,pooled_min5
Open Systems Technologies,0.25,-0.02127659574468085,0.0,0.0,0.1111111111111111,240.74940898345153,2.6654846335697404,0.5390070921985816,1.4111237611182361,0.9208037825059101,pooled_min5
Matlen Silver,0.0,0.0,0.0,0.0,0.0,-507.42816091954046,0.5603448275862064,0.48563218390804586,-0.8040135301106426,-0.382183908045977,pooled_min5
Info Way Solutions,0.0,0.0,0.0,0.0,0.0,-600.2307692307693,0.08974358974359031,-0.17948717948717946,-0.09703565357320845,-0.7564102564102564,pooled_min5
Baxter International Inc.,0.0,0.14285714285714285,0.0,0.0,0.0,1366.5428571428565,3.542857142857143,1.7428571428571429,5.139362123309887,1.0285714285714285,pooled_min5
Ampcus Inc,0.0,0.14285714285714285,0.0,-0.1523809523809524,-0.10476190476190478,-702.2857142857142,-0.7142857142857144,-0.3714285714285715,-1.9672616150957027,-2.2095238095238097,pooled_min5
"Yoh, A Day & Zimmermann Company",0.125,0.02702702702702703,0.0,0.10810810810810811,0.1891891891891892,2930.112612612613,0.04054054054054035,0.45045045045045046,-3.0688163522156,-0.9504504504504507,pooled_min5
Soho Square Solutions,0.0,0.0,0.0,-0.16666666666666666,-0.16666666666666666,872.3333333333333,-1.333333333333333,0.5,-1.7833604366939373,0.3333333333333335,pooled_min5
Tekgence Inc,0.0,0.0,0.0,0.09090909090909091,0.18181818181818182,776.0303030303029,5.590909090909092,0.45454545454545453,1.1032548786057037,0.6363636363636362,pooled_min5
DRW,0.35555555555555557,0.0,0.0,-0.0873015873015873,-0.0873015873015873,978.333333333333,1.666666666666667,0.261904761904762,1.7630731846602443,0.45238095238095255,pooled_min5
Javen Technologies,0.0,0.0,0.0,0.16666666666666666,0.3333333333333333,530.0,3.616666666666667,0.8333333333333334,1.4095951040463246,-0.48333333333333384,pooled_min5
Adobe,0.04225352112676056,-0.06763285024154589,0.0,0.16183574879227053,0.15217391304347827,2845.6980676328503,4.548309178743961,-0.16425120772946866,2.6687068842768755,0.20531400966183533,pooled_min5
Cox Automotive Inc.,0.4642857142857143,0.16666666666666666,0.0,0.08333333333333333,0.5,-1298.583333333333,0.6309523809523796,0.5119047619047621,2.145494882514053,-0.17857142857142883,pooled_min5
Rippling,0.15151515151515152,0.0,0.0196078431372549,0.0196078431372549,0.07475490196078433,794.3125,0.01348039215686292,-0.19362745098039214,-0.8523410632342632,0.6066176470588234,pooled_min5
Zipline,0.0,0.058823529411764705,0.0,-0.07692307692307693,0.04072398190045248,894.3484162895929,0.23981900452488691,1.248868778280543,-0.1189359268599568,0.040723981900452344,pooled_min5
TikTok,0.4,0.5917184265010352,0.0,0.043478260869565216,0.20496894409937888,810.8095238095239,1.1200828157349898,0.20248447204968945,0.14302916428308476,0.2318840579710142,pooled_min5
Mindlance,0.07142857142857142,0.0,0.0,0.10714285714285714,0.08333333333333334,1197.5119047619048,3.416666666666667,-0.6904761904761904,1.0643143661950951,0.4642857142857144,pooled_min5
Deloitte,0.2222222222222222,-0.045454545454545456,0.0,0.27419354838709675,0.5,1729.1026392961876,5.112903225806452,1.9604105571847508,5.988041559691693,1.2052785923753664,pooled_min5
OSI Engineering,0.0,0.0,0.0,0.35294117647058826,0.35294117647058826,-258.6078431372548,-1.882352941176471,-0.392156862745098,-2.281498154453237,-0.48039215686274517,pooled_min5
"VMC Soft Technologies, Inc",0.0,0.0,0.0,0.0,0.06666666666666667,1155.2666666666669,-1.7666666666666666,1.8,-2.82075954768288,1.6333333333333337,pooled_min5
Selby Jennings,-0.11428571428571427,0.05263157894736842,0.0,0.0,0.022328548644338114,604.2631578947369,1.350877192982456,0.5247208931419457,0.14103808669261442,0.02711323763955331,pooled_min5
Supermicro,0.3333333333333333,0.0,0.0,-0.08333333333333333,0.0,-602.166666666667,4.875,-1.4166666666666665,1.6316627749426145,-0.75,pooled_min5
PepsiCo,-0.1,0.0,0.0,0.0,-0.32499999999999996,-2180.825,1.2999999999999998,1.6749999999999998,0.18273823801528888,-0.6749999999999998,pooled_min5
Wells Fargo,-0.1456221198156682,0.0,0.0,0.045871559633027525,0.382262996941896,194.06934457393163,1.2116703859823126,0.8876766674931813,0.5586070860262011,-0.12629142904372337,pooled_min5
Wise Skulls,0.16666666666666666,0.0,0.0,-0.03333333333333333,0.043589743589743594,225.89487179487196,1.1923076923076925,0.5025641025641026,-0.3121094814635599,0.09743589743589753,pooled_min5
Broadcom,-0.3333333333333333,0.0,0.0,0.0,0.058823529411764705,-627.4019607843138,2.2941176470588234,-0.3627450980392156,-0.67750844722107,-0.7352941176470589,pooled_min5
Anduril Industries,-0.08006198347107438,0.007380073800738007,0.0,0.014760147601476014,0.23687198410445642,2357.7959835367583,1.2937837070678402,0.5090831677547546,0.3589346702523595,-0.3351546977008235,pooled_min5
Schneider Electric,-0.038461538461538464,0.15324675324675324,0.0,0.0,0.0,1904.914285714286,2.7116883116883113,0.9818181818181819,3.488217916060918,0.9454545454545458,pooled_min5
HTC Global Services,-0.13333333333333333,0.0,0.0,-0.05357142857142857,-0.01785714285714285,1279.261904761905,1.845238095238095,1.1666666666666665,-0.15886458446699625,0.33333333333333304,pooled_min5
Rockstar Games,0.0,0.0,0.0,0.0,0.0,1365.708333333333,-1.125,0.75,-2.073453509012429,0.833333333333333,pooled_min5
General Atomics,-0.4285714285714286,-0.1111111111111111,0.0,0.0,0.15,1888.2333333333331,1.55,0.1388888888888889,1.5647991353370232,1.8666666666666667,pooled_min5
EPITEC,-0.5,0.0,-0.0625,0.08108108108108109,0.045608108108108114,-552.4155405405404,3.278716216216216,0.7263513513513513,1.5867254267522284,-0.6858108108108105,pooled_min5
TekWissen ®,0.8888888888888888,-0.043478260869565216,0.2,0.2,0.2,-240.54782608695632,-0.8347826086956527,-0.6173913043478262,-2.1646695271403784,0.15652173913043477,pooled_min5
Belay Technologies,0.10416666666666667,0.16666666666666666,0.0,0.25,0.39743589743589747,-256.76282051282124,0.37820512820512864,0.23717948717948711,1.2603556408562557,0.2435897435897436,pooled_min5
JPMorgan Chase & Co.,-0.124,-0.08333333333333333,0.0,-0.002450980392156854,0.15637254901960784,1189.3676470588234,1.8965686274509803,0.7715686274509804,2.3243138333719,0.5612745098039214,pooled_min5
Centraprise,0.0,0.0,0.0,0.0,0.01260504201680672,71.92647058823536,1.5063025210084033,-0.046218487394957986,0.4359840255455565,-0.3760504201680672,pooled_min5
Macquarie Group,-0.75,0.0,0.0,0.6,0.6,769.4000000000005,7.199999999999999,0.19999999999999996,6.053505620968703,-0.20000000000000018,pooled_min5
Procore Technologies,0.25,0.045454545454545456,0.0,0.0,0.6818181818181818,-91.40909090909099,-2.295454545454546,0.7727272727272729,-0.2093027511029808,0.05681818181818166,pooled_min5
ApTask,0.0,0.0,0.0,0.4,0.4,2845.971428571428,9.942857142857143,0.5142857142857143,9.76615416276651,2.1142857142857148,pooled_min5
Software Technology Inc.,,0.0,0.0,0.0,0.2,-337.28484848484845,-0.9030303030303024,0.806060606060606,-1.0434512878603526,-1.2484848484848485,pooled_min5
Leidos,0.14731020613373555,0.058308055274688235,0.0,0.10465116279069768,0.1890798786653185,3275.0726322885075,3.086113919784294,0.08712504213009775,1.4484584782216368,0.035894843276036426,pooled_min5
Amazon Web Services (AWS),0.022935779816513763,0.0,-0.0011955885223501866,0.04521276595744681,0.29401717743509664,1510.1778010931093,1.6562073004099158,0.5388932266250244,0.9292142190590242,-0.07500487995315286,pooled_min5
Solomon Page,0.0,0.0,0.0,0.0,0.38461538461538464,867.5384615384614,1.0153846153846153,2.569230769230769,1.5714843733664134,0.8153846153846152,pooled_min5
Serco,0.0,0.4,0.0,0.0,0.4,3608.7999999999993,0.16666666666666674,0.6000000000000001,-1.902121332611995,0.6333333333333329,pooled_min5
Verizon,0.0,-0.25,0.0,0.18181818181818182,0.18181818181818182,1514.647727272727,1.7840909090909083,2.1704545454545454,2.007512908648193,0.6704545454545459,pooled_min5
Genentech,0.11363636363636365,0.0,0.0,0.13333333333333333,0.3333333333333333,1723.666666666667,1.1333333333333329,0.5333333333333332,0.41462570165469353,0.5999999999999996,pooled_min5
LHH,0.0,0.0,0.0,0.125,0.17857142857142858,1121.0714285714287,-2.6071428571428568,1.4821428571428572,-1.5086808979678974,0.07142857142857162,pooled_min5
CVS Health,-0.047430830039525695,0.0,0.05,0.13787878787878788,0.2924242424242425,-952.8575757575754,3.5196969696969695,0.5909090909090909,2.619363869069847,-0.015151515151514694,pooled_min5
Tata Consultancy Services,-0.022222222222222223,0.0,-0.013888888888888888,0.13399843505477307,0.162754303599374,1072.9868935837249,4.105242566510172,0.4413145539906103,3.5350170229577635,0.9000391236306728,pooled_min5
Agoda,0.0,0.0,0.0,0.0,0.07692307692307693,164.29370629370624,-2.045454545454545,1.423076923076923,-1.6395488810368484,-0.604895104895105,pooled_min5
Akkodis,0.12354312354312355,-0.045454545454545456,0.0,0.05263157894736842,0.05741626794258374,1345.1698564593298,1.7488038277511961,0.3911483253588517,-0.22916297981196876,0.010765550239234312,pooled_min5
Innovative Defense Technologies (IDT),0.14285714285714285,-0.1,0.0,0.08333333333333333,0.4833333333333334,2225.7,-0.09999999999999964,1.1166666666666665,-0.3191710972355013,0.21666666666666679,pooled_min5
Actalent,0.17862068965517242,0.018115942028985508,0.0,0.018115942028985508,0.028985507246376812,1422.8260869565215,1.3246934225195095,0.5192307692307692,0.17829063114195787,0.5337235228539576,pooled_min5
EVONA,-0.14285714285714285,0.0,0.0,0.08695652173913043,0.10200668896321069,528.7441471571906,0.32441471571906355,0.6438127090301002,0.06252591418191944,0.7307692307692308,pooled_min5
Garmin,0.4829545454545454,0.03125,0.0,0.0,-0.0625,-310.875,-2.3125,-0.5625,-4.166015162510664,-0.96875,pooled_min5
Tekskills Inc.,,0.0,0.0,0.0,0.0,100.57142857142856,3.8571428571428568,0.0,3.7137266284182324,0.8285714285714283,pooled_min5
Randstad Digital Americas,0.0,0.0,0.0,0.07692307692307693,0.15384615384615385,26.266178266178486,3.2405372405372415,-0.4847374847374847,1.0237699800476991,-0.18070818070818095,pooled_min5
NBCUniversal,0.2,0.0,0.0,0.08333333333333333,0.16666666666666666,842.333333333333,-3.7738095238095246,0.25,-5.002648938143397,-0.7380952380952381,pooled_min5
ELEVI Associates,0.0,0.16666666666666666,0.0,0.0,0.0,1442.1333333333332,5.366666666666666,-0.7166666666666667,1.497426638815564,-0.5833333333333335,pooled_min5
INSPYR Solutions,0.006410256410256401,-0.14285714285714285,0.0,0.17391304347826086,0.34782608695652173,481.7080745341609,-1.1180124223602492,1.5434782608695654,-1.123765790658076,-0.46583850931676984,pooled_min5
Renesas Electronics,0.0,-0.49450549450549447,0.0,0.0,-0.06593406593406592,1825.9230769230771,0.23076923076923084,0.9230769230769231,-0.5371115393983175,-0.23076923076923084,pooled_min5
MITRE,0.5,-0.14285714285714285,0.0,0.14285714285714285,0.07142857142857145,227.85714285714312,1.4285714285714288,-0.0714285714285714,-1.7228513534009253,-0.7142857142857144,pooled_min5
Intel,-0.48750000000000004,-0.31176470588235294,0.0,0.058823529411764705,-0.2235294117647059,1755.9176470588236,-5.094117647058824,-0.19999999999999996,-7.788314458918577,-0.6764705882352944,pooled_min5
"Zillion Technologies, Inc.",0.0,0.0,0.0,0.0,0.08571428571428569,703.7142857142858,-0.05714285714285694,0.9714285714285714,-2.488180892630315,-0.48571428571428577,pooled_min5
Robert Half,-0.07450980392156863,-0.018518518518518517,0.0,0.08163265306122448,0.3469387755102041,461.3155706727134,2.971655328798186,0.9183673469387754,2.812679757757298,0.6296296296296298,pooled_min5
SpaceX,0.6813186813186813,0.03773584905660377,0.0,0.012578616352201259,0.06289308176100629,118.38411949685542,-0.13710691823899346,-0.00990566037735846,-1.5802677067588269,-0.38647798742138306,pooled_min5
NVIDIA,0.009160068312373856,0.02564102564102564,0.0,0.10040485829959514,0.2844804318488529,342.1103913630227,0.6912280701754385,0.16032388663967612,-0.3689198368032729,-0.2175438596491226,pooled_min5
AMD,0.0,-0.08,0.0,0.005454545454545455,0.07818181818181819,645.4936363636361,1.1090909090909093,0.6681818181818181,1.3170028325401706,0.45045454545454566,pooled_min5
BLUE ORIGIN,-0.047653958944281524,0.0031100974497200937,0.0,0.03296703296703297,0.2087912087912088,1378.2992950445778,5.876943810906075,-0.013995438523740411,3.789833208867945,0.2519178934273274,pooled_min5
Photon,-0.03125,0.0,0.0,0.14666666666666667,0.2577777777777778,-38.6155555555556,4.093333333333334,-0.006666666666666599,2.8917251962078043,-0.026666666666666394,pooled_min5
Carrier,0.5,0.0,0.0,0.0,0.0,1662.666666666667,-1.222222222222222,-0.2222222222222222,-3.685984747303281,-1.2222222222222219,pooled_min5
Textron,1.0,0.16666666666666666,0.0,0.0,0.0,2531.433333333333,2.8666666666666663,-0.6333333333333333,1.502287379603875,0.8999999999999999,pooled_min5
Blizzard Entertainment,0.0,-0.1,0.0,0.0,0.0,1523.999999999999,-1.7000000000000002,0.7000000000000001,-3.5400130426872227,0.09999999999999964,pooled_min5
ManTech,0.010073260073260072,0.022727272727272728,0.0,0.045454545454545456,0.13344988344988346,-2893.4761072261067,4.125874125874126,0.04428904428904429,5.050363755332077,-0.5303030303030303,pooled_min5
Adyen,0.0,0.0,0.0,0.0,0.0,281.8000000000002,1.1714285714285713,0.4571428571428571,2.7413224939901104,1.0857142857142854,pooled_min5
AT&T,0.0,0.0,0.0,0.0888888888888889,0.44888888888888895,1318.0133333333333,1.1288888888888895,0.38222222222222213,1.2958436993166216,-0.3111111111111109,pooled_min5
Mitchell Martin Inc.,0.0,0.0,0.0,0.0,0.42105263157894735,708.9684210526316,0.3999999999999999,-0.021052631578947323,-3.2301760029765076,-0.11578947368421044,pooled_min5
Enexus Global Inc.,0.0,0.0,0.0,0.06666666666666667,0.06666666666666667,745.1939393939394,1.5696969696969703,0.3939393939393939,-0.6430811284494493,-0.38181818181818183,pooled_min5
Clover,,0.0,0.0,0.0,0.0,-583.3000000000002,0.09999999999999964,0.7,-3.097072175780726,-0.09999999999999964,pooled_min5
Talent Groups,0.0,0.0,0.0,0.12903225806451613,0.22580645161290322,1261.1494057724958,2.6740237691001703,0.8183361629881154,0.7474496427650343,0.9745331069609509,pooled_min5
System One,0.0,0.0,0.0,-0.058333333333333334,-0.03611111111111111,174.6833333333334,0.7777777777777777,1.0972222222222223,1.3412231082524475,0.547222222222222,pooled_min5
Google,0.31534701857282504,0.012195121951219513,0.0012195121951219512,0.08902439024390243,0.14933481152993347,241.48107908351813,1.8891722099039172,-0.011529933481152943,0.3754098018540901,-0.006577974870658032,pooled_min5
General Motors,0.013440860215053765,-0.019072550486163048,0.0,0.04712041884816754,0.1955871353777113,-132.63462976813753,-0.6323859386686612,0.19296933433059094,-2.747953285399141,0.05235602094240832,pooled_min5
"Softworld, a Kelly Company",0.0,0.0,0.0,0.0,0.0,-642.6666666666667,-2.0555555555555562,-0.16666666666666663,-1.4594362271772936,-0.666666666666667,pooled_min5
Collabera,0.0,0.0,0.0,0.11538461538461539,0.19230769230769232,1358.440170940171,1.4017094017094012,0.7735042735042734,0.22991216416370097,0.7735042735042734,pooled_min5
Bank of America,0.0,0.0,0.0,0.38461538461538464,0.46153846153846156,144.04615384615408,-0.03076923076923066,-0.41538461538461546,-1.3644703825570024,-0.7538461538461538,pooled_min5
Microsoft,-0.19555555555555554,0.0023923444976076554,0.004784688995215311,0.09090909090909091,0.5,606.5827751196166,1.3236842105263147,0.4447368421052631,0.17712005773984751,-0.13660287081339728,pooled_min5
Capital One,0.03247486781276401,0.0,0.0,0.17162000342133776,0.23217197924388433,1696.2931117066773,1.7841021839539248,0.2796658493470947,-0.2774590537679531,0.0338085191309796,pooled_min5
"Software Guidance & Assistance, Inc. (SGA, Inc.)",-0.2857142857142857,0.0,0.0,0.13636363636363635,0.2727272727272727,402.2828282828282,5.1010101010101,0.7121212121212122,3.7469500479021547,-0.4494949494949494,pooled_min5
Cypress HCM,0.125,0.0,-0.1111111111111111,0.058823529411764705,0.13071895424836605,469.0261437908498,4.411764705882353,0.5686274509803922,3.1369516678536082,-0.6274509803921564,pooled_min5
QinetiQ US,0.0,0.0,0.0,0.0,0.0,2876.958333333333,-1.5833333333333335,1.4166666666666667,0.7431480217466344,2.666666666666667,pooled_min5
Mastech Digital,-0.1,-0.125,0.0,0.03225806451612903,0.06451612903225806,409.6774193548388,3.457661290322581,0.49395161290322576,1.8927161633905185,0.5403225806451615,pooled_min5
Aditi Consulting,-0.1111111111111111,-0.03571428571428571,0.0,0.10317460317460318,0.6031746031746031,2923.940476190476,0.8095238095238102,0.38095238095238093,-0.8515359937824292,0.5992063492063493,pooled_min5
NiCE,0.2,0.0,0.1111111111111111,0.2222222222222222,0.3333333333333333,1079.2222222222226,2.7777777777777786,1.2222222222222223,4.259575991837216,0.22222222222222232,pooled_min5
Russell Tobin,0.16666666666666666,0.0,-0.08333333333333333,0.11764705882352941,0.17647058823529413,2076.28431372549,-1.2058823529411766,0.7598039215686274,-3.2833899274867706,0.4607843137254899,pooled_min5
AMERICAN SYSTEMS,0.2857142857142857,0.0,0.0,0.0,0.0,-194.9666666666667,2.2555555555555555,-0.4555555555555556,1.6815580986772778,0.022222222222222143,pooled_min5
Ring,-0.2,0.0,0.0,0.0,0.125,999.1499999999996,0.15000000000000036,-1.225,-1.0993177609748284,0.04999999999999982,pooled_min5
eTeam,-0.125,0.1111111111111111,0.0,0.0,0.4444444444444444,2573.7777777777783,1.6666666666666665,2.111111111111111,2.523886855760657,1.9444444444444442,pooled_min5
Eclaro,0.125,0.1,0.0,0.0,0.1,-507.02857142857147,3.685714285714286,0.4571428571428573,7.177076980513385,0.02857142857142847,pooled_min5
CesiumAstro,-0.053571428571428575,0.0,0.0,0.0,0.0,1510.478260869565,1.1032608695652173,1.0054347826086956,1.6593009103697254,0.32608695652173925,pooled_min5
Rocket Lab,0.012820512820512803,0.0,0.0,0.0,0.09090909090909091,2447.8881118881127,2.63986013986014,1.4965034965034965,2.928684713279774,0.26923076923076916,pooled_min5
Dexian,-0.1111111111111111,-0.08333333333333333,0.0,0.07317073170731707,0.21951219512195122,-146.73983739837377,1.4207317073170724,0.44308943089430897,0.8160533723868806,0.08536585365853666,pooled_min5
FOTOMILL STUDIOS LIMITED,1.0,0.4,0.0,0.0,0.0,617.0,2.0,0.0,-0.11454721474708052,-0.7999999999999998,pooled_min5
Futran Solutions,0.0,0.125,0.0,0.125,0.25,-194.75,0.4038461538461542,0.41346153846153844,0.9392296464894753,-0.7115384615384617,pooled_min5
Georgia Tech Research Institute,-0.09523809523809523,0.07500000000000001,0.0,0.0,0.2,2422.7749999999996,2.7,-0.975,0.6196458777595661,-0.40000000000000036,pooled_min5
Apexon,0.0,0.0,0.0,0.0,0.0,-105.40000000000009,5.955555555555556,0.07777777777777778,5.837362572276051,0.5333333333333337,pooled_min5
Draper,0.058333333333333334,0.045454545454545456,0.0,0.0,0.0,1657.2994652406414,-1.393048128342246,0.13903743315508021,0.23636135096718736,0.10427807486631036,pooled_min5
Navy Federal Credit Union,-1.0,0.0,0.0,0.0,0.0,2419.666666666667,1.9666666666666668,1.866666666666667,-0.023287063707665867,-0.4333333333333327,pooled_min5
Moog Inc.,0.0,0.1,0.0,0.0,0.0,2570.5,0.5666666666666665,0.6333333333333334,-1.0852293912060622,-0.4333333333333331,pooled_min5
NLB Services,0.23333333333333336,0.0,0.0,0.13793103448275862,0.09578544061302682,779.8505747126435,2.049808429118774,0.5095785440613028,2.7354184484664317,0.7279693486590038,pooled_min5
State Street,-0.033333333333333354,0.09090909090909091,0.0,0.18181818181818182,0.2727272727272727,1784.469696969697,4.696969696969697,1.6363636363636365,3.4555581322961313,0.4848484848484853,pooled_min5
"Zodiac Solutions, Inc",0.0,0.0,0.0,0.0,0.42857142857142855,-41.089285714285666,0.03571428571428559,-0.375,-2.303115532489661,-0.8035714285714286,pooled_min5
VySystems,0.0,0.0,0.0,0.2,0.3333333333333333,301.83333333333326,4.066666666666666,0.6000000000000001,1.7518142081189998,-0.40000000000000036,pooled_min5
"Metasys Technologies, Inc.",0.0,0.0,0.0,0.0,0.14285714285714285,679.3571428571429,3.452380952380952,0.26190476190476186,3.02481853823997,0.3333333333333335,pooled_min5
FIS,-0.14285714285714285,-0.03333333333333333,0.0,0.125,0.375,1002.4250000000002,3.5250000000000004,0.5833333333333333,4.811370854380014,0.13750000000000018,arshkon_min5
Robinhood,0.3333333333333333,0.08333333333333333,0.0,-0.09722222222222221,-0.05555555555555555,328.2777777777783,1.2500000000000004,0.6527777777777779,1.122786066741471,-0.5416666666666665,arshkon_min5
Eliassen Group,0.07142857142857142,0.0,0.0,0.10256410256410256,0.41025641025641024,1503.435897435898,2.7948717948717947,0.6837606837606838,0.9935784649314974,0.3803418803418799,arshkon_min5
"Pyramid Consulting, Inc",0.16666666666666666,0.0,0.0,0.12,0.6,910.2950000000001,3.380000000000001,0.92,1.8479212269535976,0.7549999999999999,arshkon_min5
Insight Global,0.0822222222222222,0.00488315312173003,0.0,0.08998953610045343,0.1848622253226369,607.3463550749912,2.77665387745611,0.5200558074642483,2.080360769432953,0.3214742471805603,arshkon_min5
Optomi,0.0,0.043478260869565216,0.0,0.08695652173913043,0.28019323671497587,239.22705314009636,4.642512077294686,-0.15458937198067635,3.8531552914602565,0.09661835748792269,arshkon_min5
Ledgent Technology,-0.10384615384615385,0.02702702702702703,0.0,0.16216216216216217,0.24324324324324326,1420.0556438791732,4.081081081081081,1.4451510333863276,3.798053376084174,1.055643879173291,arshkon_min5
Synechron,0.0,0.0,0.0,0.14705882352941177,0.27434077079107505,1417.5892494929003,3.2900608519269774,1.3392494929006085,3.392086508136032,0.13590263691683635,arshkon_min5
Quantum World Technologies Inc.,0.0,0.0,0.0,0.16666666666666666,0.26190476190476186,833.8571428571429,1.4761904761904772,-0.2857142857142857,2.3552039009740975,0.23809523809523814,arshkon_min5
WEX,-0.05714285714285716,0.0,0.0,0.0,0.3333333333333333,533.1130952380954,-0.8154761904761898,0.0714285714285714,-0.5300792055149208,0.25,arshkon_min5
American Express,0.023809523809523808,0.0,0.05555555555555555,0.5,0.6666666666666666,2220.4047619047624,6.214285714285714,1.150793650793651,6.1132612271184605,-0.015873015873015817,arshkon_min5
Goliath Partners,0.0,0.0,0.0,0.08108108108108109,0.08108108108108109,-242.6872586872587,0.07335907335907343,0.6486486486486487,0.6812470652701457,0.011583011583011782,arshkon_min5
Raas Infotek,0.0,0.0,0.0,0.030303030303030304,0.12121212121212122,370.27272727272725,6.91919191919192,0.6363636363636364,7.277873228785587,0.4747474747474749,arshkon_min5
Leonardo DRS,0.1695906432748538,0.125,0.0,0.0,0.1875,-756.1611842105267,0.8092105263157894,-0.8585526315789473,-0.6617015171460752,-0.9605263157894735,arshkon_min5
UST,-0.07142857142857142,0.047619047619047616,0.0,0.15821812596006143,0.3486943164362519,3052.8556067588324,3.519201228878649,0.6943164362519201,2.61670238883804,1.172043010752688,arshkon_min5
Experis,0.03548387096774194,-0.00883838383838384,0.0,0.06944444444444445,0.2222222222222222,752.905303030303,0.5151515151515147,0.5505050505050504,-0.8675072220280393,0.012626262626262985,arshkon_min5
Motion Recruitment,-0.009312596006144397,0.004540525887774465,0.0,0.09243697478991597,0.2741257793439957,664.9158986175116,2.6061263214963404,0.6532258064516129,1.2389253088148369,0.3475196530224993,arshkon_min5
Visa,-0.13725490196078433,0.0547945205479452,0.0,0.2602739726027397,0.3835616438356164,225.31748589846848,4.564867042707494,0.6051571313456889,3.0214343993992676,-0.05721192586623669,arshkon_min5
CGI,0.023255813953488372,0.02470355731225296,0.0,0.03409090909090909,0.14772727272727273,678.7667984189729,1.2396245059288535,1.0671936758893281,0.10983729505826823,0.3591897233201582,arshkon_min5
Thermo Fisher Scientific,-0.047619047619047616,-0.16666666666666666,0.0,0.0,-0.04166666666666666,1182.1666666666665,4.0,1.0833333333333335,2.1950776818365765,0.08333333333333304,arshkon_min5
Ehub Global Inc,0.0,0.0,0.0,-0.033333333333333354,-0.033333333333333354,878.6666666666667,5.3,-0.033333333333333354,3.5636761458600756,0.03333333333333366,arshkon_min5
Palo Alto Networks,0.027619047619047616,-0.010101010101010102,0.0,0.20959595959595959,0.3061383061383061,806.0242812742808,7.493783993783994,0.5021367521367519,7.397213538468554,1.2212509712509712,arshkon_min5
Brooksource,0.027777777777777776,0.05348346235045742,0.02040816326530612,0.12244897959183673,0.23715693173821253,920.4468684025337,3.2209711470795206,0.8958479943701618,1.9582584470679065,-0.25686136523574987,arshkon_min5
Piper Companies,-0.0050167224080267525,0.0,0.0,0.07272727272727272,0.12196969696969698,-144.85757575757543,0.7424242424242422,0.22878787878787882,-0.7460095341832409,-0.5530303030303028,arshkon_min5
General Dynamics Mission Systems,0.06060606060606061,0.12857142857142856,0.0,0.02857142857142857,0.04285714285714286,634.2063492063494,1.9936507936507937,0.10634920634920636,1.6037786263949383,-0.08571428571428541,arshkon_min5
IntePros,,0.0,0.0,0.08333333333333333,0.25,-665.2777777777778,4.111111111111112,0.9166666666666667,3.345365303976358,-0.9444444444444442,arshkon_min5
Empower Professionals,0.0,0.0,0.0,0.0,0.2857142857142857,992.3428571428574,3.571428571428571,0.5428571428571429,2.4734341890165283,0.8142857142857145,arshkon_min5
FastTek Global,-0.125,0.0,0.0,0.21428571428571427,0.24603174603174605,2234.3333333333335,2.734126984126984,0.992063492063492,1.7075206111372299,0.23809523809523814,arshkon_min5
Smart IT Frame LLC,0.0,0.0,0.0,-0.07954545454545454,0.011363636363636354,1076.5113636363635,1.4886363636363633,0.4772727272727273,0.37287691816237833,0.30681818181818166,arshkon_min5
DataAnnotation,,0.0,0.0,0.0,0.676056338028169,1027.3573943661972,4.225352112676056,0.0,3.124133983040893,0.790492957746479,arshkon_min5
SSi People,0.0,0.0,0.0,0.09090909090909091,0.8181818181818182,693.0363636363636,2.4,0.12727272727272732,0.46124800056010695,1.0909090909090908,arshkon_min5
Infosys,0.05582922824302135,-0.023809523809523808,0.0,0.0,0.47619047619047616,900.065714285714,4.2838095238095235,-0.15714285714285725,2.3566776593091516,-0.34761904761904727,arshkon_min5
Goldman Sachs,-0.056896551724137934,-0.02857142857142857,0.06938775510204083,0.14285714285714285,0.23673469387755103,194.03265306122466,2.848979591836735,0.29387755102040813,2.341980774950065,-0.1877551020408159,arshkon_min5
Amazon,0.04255573486342719,-0.0014912064936662209,0.0,0.014927438199483459,0.26574222112901247,1192.7565182634362,1.3578280654286066,0.6684140942073545,0.5128306978501551,0.08756610503013196,arshkon_min5
Confidential,0.0,0.0,0.0,0.0,0.125,101.77500000000009,-0.875,0.775,-1.1591165607878229,0.15000000000000036,arshkon_min5
World Wide Technology,-0.11764705882352941,0.0,0.0,0.0,-0.041666666666666664,3666.125,-1.4444444444444442,0.7638888888888891,-3.3075973585388274,0.7777777777777781,arshkon_min5
Wipro,0.06818181818181818,0.0,0.0,0.18181818181818182,0.3181818181818182,1570.818181818182,2.075757575757576,1.1161616161616161,-0.9343649748199996,0.8484848484848482,arshkon_min5
Siri InfoSolutions Inc,0.0,0.0,0.0,0.0,0.36363636363636365,-19.022727272727252,4.943181818181818,0.32954545454545453,3.861691514502577,0.10227272727272707,arshkon_min5
hackajob,0.10714285714285714,0.019011406844106463,0.0,0.08365019011406843,0.043346007604562725,3265.913307984791,1.2779467680608372,0.7015209125475286,0.21664679811926646,1.0764258555133086,arshkon_min5
myGwork - LGBTQ+ Business Community,-0.08333333333333334,-0.05989583333333333,0.0078125,0.109375,0.328125,2479.09375,0.27083333333333304,1.2109375,1.44897642548431,1.2005208333333335,arshkon_min5
Jobot,0.16111111111111112,0.01664212076583211,0.0,0.06421207658321061,0.23549337260677466,350.17628865979395,1.5229749631811487,0.5444771723122239,-0.38744661572703115,-0.2179675994108985,arshkon_min5
CACI International Inc,0.18181818181818182,0.07023411371237458,0.0,0.10869565217391304,0.24163879598662208,1287.1688963210709,4.648829431438128,0.15969899665551834,4.253221514895999,0.25,arshkon_min5
Rose International,-0.1,-0.1,0.0,0.1,0.30000000000000004,1504.9666666666662,5.299999999999999,0.7666666666666666,4.017832764957294,0.13333333333333375,arshkon_min5
Apex Systems,-0.03610389610389611,-0.02066590126291619,0.0,0.0845771144278607,0.21393034825870647,4474.656142365098,3.2422502870264065,0.8968618446230388,0.6917151476757639,0.3159203980099501,arshkon_min5
Oracle,-0.08333333333333334,0.0,0.0,0.0,0.10354609929078014,729.4226950354614,0.6113475177304961,0.2879432624113475,-0.03558827389519932,0.0375886524822695,arshkon_min5
Ampstek,0.0,0.0,0.0,0.125,0.11249999999999999,343.32500000000005,3.875,0.07500000000000001,0.9528412543462343,-0.08749999999999991,arshkon_min5
Ascendion,0.1090909090909091,0.0,0.0,0.16666666666666666,0.5833333333333334,579.5384615384614,0.7371794871794872,0.7820512820512822,-1.5700311091212276,1.1089743589743595,arshkon_min5
Ford Motor Company,0.03225806451612903,0.019230769230769232,0.0,0.057692307692307696,0.024725274725274735,1011.7472527472528,-2.7664835164835173,1.3324175824175823,-3.4421013341058755,-0.23901098901098905,arshkon_min5
BCforward,0.0,0.0,0.0,0.1276595744680851,0.23404255319148937,712.6595744680849,0.7888707037643208,0.25368248772504093,-0.18966677129349352,0.3175122749590833,arshkon_min5
Tech Consulting,0.33333333333333337,0.25274725274725274,0.0,0.0,0.0,-2205.2857142857147,-3.2747252747252746,0.17582417582417587,-2.3354657780520856,-0.9340659340659343,arshkon_min5
Cisco,0.03809523809523807,0.15294117647058825,0.0,0.1411764705882353,0.00588235294117645,3405.2784313725497,2.6568627450980387,-0.14313725490196094,1.4569317581256311,0.9117647058823533,arshkon_min5
AllSTEM Connections,-0.1111111111111111,0.0,0.0,0.0,0.0,826.2525252525252,-4.797979797979798,0.9595959595959596,-3.7632500148428196,0.6969696969696964,arshkon_min5
"V-Soft Consulting Group, Inc.",0.0,0.0,0.0,0.36363636363636365,0.5454545454545454,118.07177033492826,4.392344497607655,0.009569377990430616,0.9814171101005615,-0.7511961722488039,arshkon_min5
Cognizant,0.0,-0.05,0.0,0.04918032786885246,0.13114754098360656,-839.3893442622953,2.7122950819672136,0.6754098360655738,2.959833380567038,0.5327868852459012,arshkon_min5
SynergisticIT,,0.0,0.0,0.0,0.8947368421052632,775.2982456140348,-4.859649122807018,0.3684210526315789,4.437000902767704,-1.0526315789473684,arshkon_min5
Honeywell,-0.024999999999999994,-0.003119429590017826,0.0,0.23529411764705882,0.27450980392156865,2163.832887700535,5.555258467023172,0.6916221033868092,4.742809398946804,0.428698752228164,arshkon_min5
Boeing,-0.012711864406779655,-0.06810035842293906,-0.14695340501792115,0.010752688172043012,-0.07885304659498207,688.1433691756274,2.5555555555555554,0.917562724014337,2.829017452478741,0.15053763440860202,arshkon_min5
VDart,0.0,0.0,0.0,0.24,0.44,861.6266666666668,5.119999999999999,1.4177777777777778,5.957775747781938,1.3511111111111114,arshkon_min5
"American Unit, Inc",0.0,0.0,0.0,0.02777777777777779,0.1527777777777778,74.84722222222217,1.5138888888888893,0.5416666666666667,-0.9095522024668768,-0.13888888888888884,arshkon_min5
Harnham,0.08333333333333333,0.0,0.0,0.19976359338061464,0.34397163120567376,572.3226950354608,1.8215130023640658,1.1891252955082743,1.686545188659808,0.670212765957447,arshkon_min5
"BAE Systems, Inc.",0.0002836879432624173,0.01648351648351648,0.0,0.014285714285714285,0.01648351648351648,-669.3192307692307,0.9714285714285715,0.1313186813186813,0.5857709596269989,-0.027472527472528263,arshkon_min5
Booz Allen Hamilton,0.2430939226519337,0.008875739644970414,0.0,-0.058579881656804736,0.04497041420118342,-759.8437869822483,3.1289940828402374,0.6485207100591717,2.739820571307766,0.18934911242603558,arshkon_min5
TEKsystems,-0.03924418604651163,0.0,0.0,0.10833333333333334,0.3,3017.7954301075274,2.423655913978495,0.7887096774193548,1.609387676924352,1.5048387096774198,arshkon_min5
Cloudflare,0.17647058823529413,0.040485829959514164,0.0,0.05263157894736842,0.48785425101214575,569.8178137651821,1.6740890688259107,0.6761133603238867,1.1131336650991206,0.8502024291497978,arshkon_min5
Radley James,-0.6666666666666666,-0.42857142857142855,0.0,0.1,0.3,587.9857142857143,1.0,0.9571428571428573,0.8780463253057031,0.9714285714285715,arshkon_min5
Uber,0.08700209643605872,0.01990049751243781,0.004975124378109453,0.06467661691542288,0.23217247097844113,471.8905472636816,2.013266998341625,1.1144278606965177,3.7791152543867863,0.2769485903814264,arshkon_min5
Qualcomm,-0.5,0.017241379310344827,0.0,0.017241379310344827,-0.04482758620689656,1487.0298850574718,1.1735632183908047,0.10689655172413792,-0.4213680850192696,-0.5011494252873563,arshkon_min5
ICE,-0.024456521739130432,-0.019230769230769232,0.0,0.3076923076923077,0.3076923076923077,-53.55769230769238,1.134615384615385,0.21153846153846145,2.0328365840762572,0.4038461538461542,arshkon_min5
Fidelity Investments,-0.16666666666666666,0.0,0.0,0.018518518518518517,0.12962962962962962,-1385.3569604086852,-1.2247765006385691,0.6015325670498085,-1.210564168818553,0.332694763729247,arshkon_min5
Northrop Grumman,0.168430636167065,-0.003236245954692557,0.019614464612354016,0.0,-0.019417475728155338,543.9776276910088,2.5143379766427465,0.14996482341353595,1.0356720756921534,-0.3938370620514986,arshkon_min5
Franklin Fitch,0.0,0.0,0.0,0.10526315789473684,0.15789473684210525,513.2526315789473,2.1105263157894734,1.5842105263157893,0.6966076471626144,2.0842105263157893,arshkon_min5
Amtex Systems Inc.,0.125,0.0,0.0,0.10526315789473684,0.10526315789473684,268.32388663967595,1.6882591093117405,0.7935222672064777,2.19669955897951,1.0364372469635628,arshkon_min5
Entegee,0.16666666666666666,0.1,0.0,0.0,0.0,561.0571428571429,-1.0,0.3,-2.6893055804737287,0.1428571428571428,arshkon_min5
SAIC,0.13615560640732266,0.09375,0.0,0.0,0.1875,759.3097826086955,4.9646739130434785,0.3342391304347826,4.5655903011897045,0.07744565217391308,arshkon_min5
ServiceNow,-0.3611111111111111,0.0,0.0,0.42105263157894735,0.7894736842105263,600.2789473684206,3.5578947368421048,0.9789473684210527,4.893596539507741,1.473684210526316,arshkon_min5
The Walt Disney Company,-0.02040816326530612,0.014492753623188406,0.028985507246376812,0.17391304347826086,0.40068201193520886,1211.080988917306,2.200341005967605,0.845694799658994,0.8657370152714052,-0.2020460358056262,arshkon_min5
Compunnel Inc.,-0.05714285714285714,0.0,0.0,0.06976744186046512,0.11627906976744186,22.571220930232585,1.9297480620155048,0.6875,1.8674122202522703,-0.04215116279069786,arshkon_min5
Open Systems Technologies,0.25,-0.02127659574468085,0.0,0.0,0.1111111111111111,240.74940898345153,2.6654846335697404,0.5390070921985816,1.4111237611182361,0.9208037825059101,arshkon_min5
Matlen Silver,0.0,0.0,0.0,0.0,0.0,-507.42816091954046,0.5603448275862064,0.48563218390804586,-0.8040135301106426,-0.382183908045977,arshkon_min5
Adobe,0.04225352112676056,-0.06763285024154589,0.0,0.16183574879227053,0.15217391304347827,2845.6980676328503,4.548309178743961,-0.16425120772946866,2.6687068842768755,0.20531400966183533,arshkon_min5
TikTok,0.4,0.5917184265010352,0.0,0.043478260869565216,0.20496894409937888,810.8095238095239,1.1200828157349898,0.20248447204968945,0.14302916428308476,0.2318840579710142,arshkon_min5
Mindlance,0.07142857142857142,0.0,0.0,0.10714285714285714,0.08333333333333334,1197.5119047619048,3.416666666666667,-0.6904761904761904,1.0643143661950951,0.4642857142857144,arshkon_min5
Deloitte,0.2222222222222222,-0.045454545454545456,0.0,0.27419354838709675,0.5,1729.1026392961876,5.112903225806452,1.9604105571847508,5.988041559691693,1.2052785923753664,arshkon_min5
OSI Engineering,0.0,0.0,0.0,0.35294117647058826,0.35294117647058826,-258.6078431372548,-1.882352941176471,-0.392156862745098,-2.281498154453237,-0.48039215686274517,arshkon_min5
"VMC Soft Technologies, Inc",0.0,0.0,0.0,0.0,0.06666666666666667,1155.2666666666669,-1.7666666666666666,1.8,-2.82075954768288,1.6333333333333337,arshkon_min5
Selby Jennings,-0.11428571428571427,0.05263157894736842,0.0,0.0,0.022328548644338114,604.2631578947369,1.350877192982456,0.5247208931419457,0.14103808669261442,0.02711323763955331,arshkon_min5
Wells Fargo,-0.1456221198156682,0.0,0.0,0.045871559633027525,0.382262996941896,194.06934457393163,1.2116703859823126,0.8876766674931813,0.5586070860262011,-0.12629142904372337,arshkon_min5
HTC Global Services,-0.13333333333333333,0.0,0.0,-0.05357142857142857,-0.01785714285714285,1279.261904761905,1.845238095238095,1.1666666666666665,-0.15886458446699625,0.33333333333333304,arshkon_min5
EPITEC,-0.5,0.0,-0.0625,0.08108108108108109,0.045608108108108114,-552.4155405405404,3.278716216216216,0.7263513513513513,1.5867254267522284,-0.6858108108108105,arshkon_min5
TekWissen ®,0.8888888888888888,-0.043478260869565216,0.2,0.2,0.2,-240.54782608695632,-0.8347826086956527,-0.6173913043478262,-2.1646695271403784,0.15652173913043477,arshkon_min5
JPMorgan Chase & Co.,-0.124,-0.08333333333333333,0.0,-0.002450980392156854,0.15637254901960784,1189.3676470588234,1.8965686274509803,0.7715686274509804,2.3243138333719,0.5612745098039214,arshkon_min5
Centraprise,0.0,0.0,0.0,0.0,0.01260504201680672,71.92647058823536,1.5063025210084033,-0.046218487394957986,0.4359840255455565,-0.3760504201680672,arshkon_min5
Macquarie Group,-0.75,0.0,0.0,0.6,0.6,769.4000000000005,7.199999999999999,0.19999999999999996,6.053505620968703,-0.20000000000000018,arshkon_min5
Procore Technologies,0.25,0.045454545454545456,0.0,0.0,0.6818181818181818,-91.40909090909099,-2.295454545454546,0.7727272727272729,-0.2093027511029808,0.05681818181818166,arshkon_min5
ApTask,0.0,0.0,0.0,0.4,0.4,2845.971428571428,9.942857142857143,0.5142857142857143,9.76615416276651,2.1142857142857148,arshkon_min5
Leidos,0.14731020613373555,0.058308055274688235,0.0,0.10465116279069768,0.1890798786653185,3275.0726322885075,3.086113919784294,0.08712504213009775,1.4484584782216368,0.035894843276036426,arshkon_min5
Amazon Web Services (AWS),0.022935779816513763,0.0,-0.0011955885223501866,0.04521276595744681,0.29401717743509664,1510.1778010931093,1.6562073004099158,0.5388932266250244,0.9292142190590242,-0.07500487995315286,arshkon_min5
Tata Consultancy Services,-0.022222222222222223,0.0,-0.013888888888888888,0.13399843505477307,0.162754303599374,1072.9868935837249,4.105242566510172,0.4413145539906103,3.5350170229577635,0.9000391236306728,arshkon_min5
Akkodis,0.12354312354312355,-0.045454545454545456,0.0,0.05263157894736842,0.05741626794258374,1345.1698564593298,1.7488038277511961,0.3911483253588517,-0.22916297981196876,0.010765550239234312,arshkon_min5
Actalent,0.17862068965517242,0.018115942028985508,0.0,0.018115942028985508,0.028985507246376812,1422.8260869565215,1.3246934225195095,0.5192307692307692,0.17829063114195787,0.5337235228539576,arshkon_min5
Randstad Digital Americas,0.0,0.0,0.0,0.07692307692307693,0.15384615384615385,26.266178266178486,3.2405372405372415,-0.4847374847374847,1.0237699800476991,-0.18070818070818095,arshkon_min5
NBCUniversal,0.2,0.0,0.0,0.08333333333333333,0.16666666666666666,842.333333333333,-3.7738095238095246,0.25,-5.002648938143397,-0.7380952380952381,arshkon_min5
MITRE,0.5,-0.14285714285714285,0.0,0.14285714285714285,0.07142857142857145,227.85714285714312,1.4285714285714288,-0.0714285714285714,-1.7228513534009253,-0.7142857142857144,arshkon_min5
"Zillion Technologies, Inc.",0.0,0.0,0.0,0.0,0.08571428571428569,703.7142857142858,-0.05714285714285694,0.9714285714285714,-2.488180892630315,-0.48571428571428577,arshkon_min5
Robert Half,-0.07450980392156863,-0.018518518518518517,0.0,0.08163265306122448,0.3469387755102041,461.3155706727134,2.971655328798186,0.9183673469387754,2.812679757757298,0.6296296296296298,arshkon_min5
BLUE ORIGIN,-0.047653958944281524,0.0031100974497200937,0.0,0.03296703296703297,0.2087912087912088,1378.2992950445778,5.876943810906075,-0.013995438523740411,3.789833208867945,0.2519178934273274,arshkon_min5
Photon,-0.03125,0.0,0.0,0.14666666666666667,0.2577777777777778,-38.6155555555556,4.093333333333334,-0.006666666666666599,2.8917251962078043,-0.026666666666666394,arshkon_min5
AT&T,0.0,0.0,0.0,0.0888888888888889,0.44888888888888895,1318.0133333333333,1.1288888888888895,0.38222222222222213,1.2958436993166216,-0.3111111111111109,arshkon_min5
Talent Groups,0.0,0.0,0.0,0.12903225806451613,0.22580645161290322,1261.1494057724958,2.6740237691001703,0.8183361629881154,0.7474496427650343,0.9745331069609509,arshkon_min5
System One,0.0,0.0,0.0,-0.058333333333333334,-0.03611111111111111,174.6833333333334,0.7777777777777777,1.0972222222222223,1.3412231082524475,0.547222222222222,arshkon_min5
Google,0.31534701857282504,0.012195121951219513,0.0012195121951219512,0.08902439024390243,0.14933481152993347,241.48107908351813,1.8891722099039172,-0.011529933481152943,0.3754098018540901,-0.006577974870658032,arshkon_min5
General Motors,0.013440860215053765,-0.019072550486163048,0.0,0.04712041884816754,0.1955871353777113,-132.63462976813753,-0.6323859386686612,0.19296933433059094,-2.747953285399141,0.05235602094240832,arshkon_min5
"Softworld, a Kelly Company",0.0,0.0,0.0,0.0,0.0,-642.6666666666667,-2.0555555555555562,-0.16666666666666663,-1.4594362271772936,-0.666666666666667,arshkon_min5
Collabera,0.0,0.0,0.0,0.11538461538461539,0.19230769230769232,1358.440170940171,1.4017094017094012,0.7735042735042734,0.22991216416370097,0.7735042735042734,arshkon_min5
Microsoft,-0.19555555555555554,0.0023923444976076554,0.004784688995215311,0.09090909090909091,0.5,606.5827751196166,1.3236842105263147,0.4447368421052631,0.17712005773984751,-0.13660287081339728,arshkon_min5
Capital One,0.03247486781276401,0.0,0.0,0.17162000342133776,0.23217197924388433,1696.2931117066773,1.7841021839539248,0.2796658493470947,-0.2774590537679531,0.0338085191309796,arshkon_min5
Mastech Digital,-0.1,-0.125,0.0,0.03225806451612903,0.06451612903225806,409.6774193548388,3.457661290322581,0.49395161290322576,1.8927161633905185,0.5403225806451615,arshkon_min5
Aditi Consulting,-0.1111111111111111,-0.03571428571428571,0.0,0.10317460317460318,0.6031746031746031,2923.940476190476,0.8095238095238102,0.38095238095238093,-0.8515359937824292,0.5992063492063493,arshkon_min5
Russell Tobin,0.16666666666666666,0.0,-0.08333333333333333,0.11764705882352941,0.17647058823529413,2076.28431372549,-1.2058823529411766,0.7598039215686274,-3.2833899274867706,0.4607843137254899,arshkon_min5
Dexian,-0.1111111111111111,-0.08333333333333333,0.0,0.07317073170731707,0.21951219512195122,-146.73983739837377,1.4207317073170724,0.44308943089430897,0.8160533723868806,0.08536585365853666,arshkon_min5
NLB Services,0.23333333333333336,0.0,0.0,0.13793103448275862,0.09578544061302682,779.8505747126435,2.049808429118774,0.5095785440613028,2.7354184484664317,0.7279693486590038,arshkon_min5
State Street,-0.033333333333333354,0.09090909090909091,0.0,0.18181818181818182,0.2727272727272727,1784.469696969697,4.696969696969697,1.6363636363636365,3.4555581322961313,0.4848484848484853,arshkon_min5
"Zodiac Solutions, Inc",0.0,0.0,0.0,0.0,0.42857142857142855,-41.089285714285666,0.03571428571428559,-0.375,-2.303115532489661,-0.8035714285714286,arshkon_min5
VySystems,0.0,0.0,0.0,0.2,0.3333333333333333,301.83333333333326,4.066666666666666,0.6000000000000001,1.7518142081189998,-0.40000000000000036,arshkon_min5
"Metasys Technologies, Inc.",0.0,0.0,0.0,0.0,0.14285714285714285,679.3571428571429,3.452380952380952,0.26190476190476186,3.02481853823997,0.3333333333333335,arshkon_min5
FIS,-0.14285714285714285,-0.03333333333333333,0.0,0.125,0.375,1002.4250000000002,3.5250000000000004,0.5833333333333333,4.811370854380014,0.13750000000000018,arshkon_min3
Robinhood,0.3333333333333333,0.08333333333333333,0.0,-0.09722222222222221,-0.05555555555555555,328.2777777777783,1.2500000000000004,0.6527777777777779,1.122786066741471,-0.5416666666666665,arshkon_min3
Eliassen Group,0.07142857142857142,0.0,0.0,0.10256410256410256,0.41025641025641024,1503.435897435898,2.7948717948717947,0.6837606837606838,0.9935784649314974,0.3803418803418799,arshkon_min3
"Pyramid Consulting, Inc",0.16666666666666666,0.0,0.0,0.12,0.6,910.2950000000001,3.380000000000001,0.92,1.8479212269535976,0.7549999999999999,arshkon_min3
New York Technology Partners,0.0,0.0,0.013513513513513514,0.06756756756756757,0.21621621621621623,545.4270270270272,2.813513513513513,0.7513513513513513,1.7241730732102076,0.5378378378378379,arshkon_min3
The University of Texas at Austin,0.25,0.0,0.0,0.0,0.3333333333333333,950.6666666666661,6.583333333333334,0.33333333333333326,7.395823564269356,0.583333333333333,arshkon_min3
Insight Global,0.0822222222222222,0.00488315312173003,0.0,0.08998953610045343,0.1848622253226369,607.3463550749912,2.77665387745611,0.5200558074642483,2.080360769432953,0.3214742471805603,arshkon_min3
Optomi,0.0,0.043478260869565216,0.0,0.08695652173913043,0.28019323671497587,239.22705314009636,4.642512077294686,-0.15458937198067635,3.8531552914602565,0.09661835748792269,arshkon_min3
Extend Information Systems Inc.,-0.023809523809523808,0.0,0.0,0.0,-0.01818181818181818,1752.8227272727272,-1.9227272727272728,0.6909090909090909,-2.4798260272813124,0.9090909090909092,arshkon_min3
Ledgent Technology,-0.10384615384615385,0.02702702702702703,0.0,0.16216216216216217,0.24324324324324326,1420.0556438791732,4.081081081081081,1.4451510333863276,3.798053376084174,1.055643879173291,arshkon_min3
Synechron,0.0,0.0,0.0,0.14705882352941177,0.27434077079107505,1417.5892494929003,3.2900608519269774,1.3392494929006085,3.392086508136032,0.13590263691683635,arshkon_min3
"IDR, Inc.",0.013986013986013984,0.0,0.0,0.13333333333333333,0.26666666666666666,227.68205128205113,1.258974358974359,1.5666666666666667,0.7959553328351902,0.5794871794871796,arshkon_min3
Quantum World Technologies Inc.,0.0,0.0,0.0,0.16666666666666666,0.26190476190476186,833.8571428571429,1.4761904761904772,-0.2857142857142857,2.3552039009740975,0.23809523809523814,arshkon_min3
WEX,-0.05714285714285716,0.0,0.0,0.0,0.3333333333333333,533.1130952380954,-0.8154761904761898,0.0714285714285714,-0.5300792055149208,0.25,arshkon_min3
American Express,0.023809523809523808,0.0,0.05555555555555555,0.5,0.6666666666666666,2220.4047619047624,6.214285714285714,1.150793650793651,6.1132612271184605,-0.015873015873015817,arshkon_min3
"LanceSoft, Inc.",-0.2222222222222222,-0.06666666666666667,0.0,0.07692307692307693,0.23076923076923078,598.1794871794871,3.7179487179487185,1.241025641025641,3.756130766107487,0.5487179487179485,arshkon_min3
GE HealthCare,0.0,0.0,0.0,0.0,-0.016666666666666677,980.8500000000004,4.816666666666666,1.3333333333333333,3.8075184853541706,0.13333333333333286,arshkon_min3
Galactic Minds INC,0.0,0.0,0.0,0.125,0.25,1306.125,2.375,1.375,2.6430385369383687,1.625,arshkon_min3
"TSR Consulting Services, Inc.",0.0,0.0,0.0,0.0,0.3333333333333333,1434.1666666666665,0.833333333333333,-0.3333333333333333,0.08609617530837133,0.33333333333333304,arshkon_min3
Caterpillar Inc.,1.0,0.1111111111111111,0.0,0.1111111111111111,0.3333333333333333,2006.4444444444443,-0.6666666666666661,0.2222222222222222,-1.0053096395310517,0.5555555555555554,arshkon_min3
Virtusa,,0.0,0.0,0.025,0.225,893.3499999999999,6.300000000000001,0.025000000000000022,4.931889109122544,0.875,arshkon_min3
Tesla,0.5897435897435896,0.06559263521288838,0.0,0.13636363636363635,0.1766398158803222,92.18814729574206,2.4499424626006903,0.04027617951668572,0.23767379541397693,-0.7422324510932108,arshkon_min3
Harvey Nash,0.25,0.0,0.0,0.16666666666666666,0.3333333333333333,-631.2666666666667,-1.0333333333333332,0.09999999999999998,0.08691578965287283,0.06666666666666643,arshkon_min3
Goliath Partners,0.0,0.0,0.0,0.08108108108108109,0.08108108108108109,-242.6872586872587,0.07335907335907343,0.6486486486486487,0.6812470652701457,0.011583011583011782,arshkon_min3
General Dynamics Information Technology,0.06349206349206349,0.0375,0.0125,0.0625,0.475,208.10773809523835,4.275,-0.005952380952380931,2.4269697084721598,-0.1482142857142854,arshkon_min3
Raas Infotek,0.0,0.0,0.0,0.030303030303030304,0.12121212121212122,370.27272727272725,6.91919191919192,0.6363636363636364,7.277873228785587,0.4747474747474749,arshkon_min3
Agility Partners,-0.25,-0.16666666666666666,0.0,-0.16666666666666666,-0.16666666666666666,5.3333333333332575,2.083333333333333,0.45833333333333337,1.3986331961390819,0.375,arshkon_min3
"Miracle Software Systems, Inc",0.0,0.0,0.0,0.42857142857142855,0.42857142857142855,1913.309523809524,-0.5476190476190474,0.7857142857142858,-2.5053122131940437,1.119047619047619,arshkon_min3
Snap Inc.,0.3,0.0,0.0,0.058823529411764705,0.17647058823529413,1402.6638655462184,-1.117647058823529,0.8823529411764706,-0.8634996556222385,0.3193277310924376,arshkon_min3
Publicis Sapient,0.0,0.14285714285714285,0.0,0.0,0.0,22.214285714285325,0.3214285714285712,-0.4642857142857143,-1.1838841858397111,-0.9642857142857144,arshkon_min3
Apetan Consulting LLC,0.25,0.0,0.0,0.06666666666666667,0.2,1774.0666666666666,5.0,0.6,1.1790903874301104,1.0,arshkon_min3
Soni,0.0,0.0,0.0,0.0,0.0,1564.761904761905,11.047619047619047,1.2857142857142858,9.193808839780152,1.952380952380952,arshkon_min3
Leonardo DRS,0.1695906432748538,0.125,0.0,0.0,0.1875,-756.1611842105267,0.8092105263157894,-0.8585526315789473,-0.6617015171460752,-0.9605263157894735,arshkon_min3
UST,-0.07142857142857142,0.047619047619047616,0.0,0.15821812596006143,0.3486943164362519,3052.8556067588324,3.519201228878649,0.6943164362519201,2.61670238883804,1.172043010752688,arshkon_min3
Experis,0.03548387096774194,-0.00883838383838384,0.0,0.06944444444444445,0.2222222222222222,752.905303030303,0.5151515151515147,0.5505050505050504,-0.8675072220280393,0.012626262626262985,arshkon_min3
Motion Recruitment,-0.009312596006144397,0.004540525887774465,0.0,0.09243697478991597,0.2741257793439957,664.9158986175116,2.6061263214963404,0.6532258064516129,1.2389253088148369,0.3475196530224993,arshkon_min3
Visa,-0.13725490196078433,0.0547945205479452,0.0,0.2602739726027397,0.3835616438356164,225.31748589846848,4.564867042707494,0.6051571313456889,3.0214343993992676,-0.05721192586623669,arshkon_min3
CGI,0.023255813953488372,0.02470355731225296,0.0,0.03409090909090909,0.14772727272727273,678.7667984189729,1.2396245059288535,1.0671936758893281,0.10983729505826823,0.3591897233201582,arshkon_min3
Equifax,0.1157894736842105,0.0,0.03333333333333333,0.2,0.26666666666666666,-21.033333333333303,0.1999999999999993,-0.2999999999999998,-2.603881204682331,-0.5,arshkon_min3
Thermo Fisher Scientific,-0.047619047619047616,-0.16666666666666666,0.0,0.0,-0.04166666666666666,1182.1666666666665,4.0,1.0833333333333335,2.1950776818365765,0.08333333333333304,arshkon_min3
Ehub Global Inc,0.0,0.0,0.0,-0.033333333333333354,-0.033333333333333354,878.6666666666667,5.3,-0.033333333333333354,3.5636761458600756,0.03333333333333366,arshkon_min3
Palo Alto Networks,0.027619047619047616,-0.010101010101010102,0.0,0.20959595959595959,0.3061383061383061,806.0242812742808,7.493783993783994,0.5021367521367519,7.397213538468554,1.2212509712509712,arshkon_min3
ClearanceJobs,,-0.010964912280701754,-0.0010964912280701754,0.0,-0.03179824561403509,-2736.4013157894738,6.032894736842104,-0.5361842105263158,5.372004209896845,-1.168859649122807,arshkon_min3
Brooksource,0.027777777777777776,0.05348346235045742,0.02040816326530612,0.12244897959183673,0.23715693173821253,920.4468684025337,3.2209711470795206,0.8958479943701618,1.9582584470679065,-0.25686136523574987,arshkon_min3
Piper Companies,-0.0050167224080267525,0.0,0.0,0.07272727272727272,0.12196969696969698,-144.85757575757543,0.7424242424242422,0.22878787878787882,-0.7460095341832409,-0.5530303030303028,arshkon_min3
Stealth Startup,0.016666666666666663,0.045454545454545456,0.0,0.13636363636363635,0.3227272727272727,989.3136363636365,3.45,0.6727272727272727,0.9067352203483816,0.4136363636363636,arshkon_min3
General Dynamics Mission Systems,0.06060606060606061,0.12857142857142856,0.0,0.02857142857142857,0.04285714285714286,634.2063492063494,1.9936507936507937,0.10634920634920636,1.6037786263949383,-0.08571428571428541,arshkon_min3
IntePros,,0.0,0.0,0.08333333333333333,0.25,-665.2777777777778,4.111111111111112,0.9166666666666667,3.345365303976358,-0.9444444444444442,arshkon_min3
Revature,0.75,0.8333333333333334,0.0,0.0,0.0,987.5833333333335,-7.333333333333333,-1.3333333333333333,-5.801782011073966,-0.6666666666666665,arshkon_min3
Empower Professionals,0.0,0.0,0.0,0.0,0.2857142857142857,992.3428571428574,3.571428571428571,0.5428571428571429,2.4734341890165283,0.8142857142857145,arshkon_min3
FastTek Global,-0.125,0.0,0.0,0.21428571428571427,0.24603174603174605,2234.3333333333335,2.734126984126984,0.992063492063492,1.7075206111372299,0.23809523809523814,arshkon_min3
Smart IT Frame LLC,0.0,0.0,0.0,-0.07954545454545454,0.011363636363636354,1076.5113636363635,1.4886363636363633,0.4772727272727273,0.37287691816237833,0.30681818181818166,arshkon_min3
PriceSenz,0.0,0.0,0.0,0.3333333333333333,0.6666666666666666,1137.4166666666665,2.916666666666667,0.6666666666666666,-0.056249171012201504,0.08333333333333348,arshkon_min3
DataAnnotation,,0.0,0.0,0.0,0.676056338028169,1027.3573943661972,4.225352112676056,0.0,3.124133983040893,0.790492957746479,arshkon_min3
SSi People,0.0,0.0,0.0,0.09090909090909091,0.8181818181818182,693.0363636363636,2.4,0.12727272727272732,0.46124800056010695,1.0909090909090908,arshkon_min3
Venmo,0.15384615384615385,0.0,0.0,0.0,0.06896551724137931,2447.6551724137935,0.7011494252873565,-0.48275862068965525,-2.5633819859282196,-0.8735632183908049,arshkon_min3
Esri,-0.0714285714285714,0.029850746268656716,0.029850746268656716,0.04477611940298507,0.07462686567164178,1455.5074626865671,5.17412935323383,1.0895522388059702,4.680278270039957,1.5820895522388057,arshkon_min3
Cbase Inc,0.0,0.0,0.0,0.16666666666666666,0.3333333333333333,-2342.5,-4.166666666666666,0.0,-2.0182590810162973,-0.33333333333333304,arshkon_min3
Infosys,0.05582922824302135,-0.023809523809523808,0.0,0.0,0.47619047619047616,900.065714285714,4.2838095238095235,-0.15714285714285725,2.3566776593091516,-0.34761904761904727,arshkon_min3
Goldman Sachs,-0.056896551724137934,-0.02857142857142857,0.06938775510204083,0.14285714285714285,0.23673469387755103,194.03265306122466,2.848979591836735,0.29387755102040813,2.341980774950065,-0.1877551020408159,arshkon_min3
Amazon,0.04255573486342719,-0.0014912064936662209,0.0,0.014927438199483459,0.26574222112901247,1192.7565182634362,1.3578280654286066,0.6684140942073545,0.5128306978501551,0.08756610503013196,arshkon_min3
U.S. Bank,0.13636363636363635,0.05405405405405406,0.0,0.10810810810810811,0.16216216216216217,716.7756756756762,0.9027027027027028,0.5216216216216216,-1.547336344521221,-0.18108108108108034,arshkon_min3
The Judge Group,-0.029411764705882353,0.0,0.0,0.11764705882352941,0.2684766214177979,784.2428355957768,2.3770739064856716,0.18250377073906476,0.5513795461580702,-0.687782805429864,arshkon_min3
Parsons Corporation,0.16666666666666669,0.1724137931034483,0.0,0.0,-0.028017241379310345,508.84698275862047,2.420258620689655,0.6314655172413792,3.8445055437635047,0.7047413793103452,arshkon_min3
Confidential,0.0,0.0,0.0,0.0,0.125,101.77500000000009,-0.875,0.775,-1.1591165607878229,0.15000000000000036,arshkon_min3
World Wide Technology,-0.11764705882352941,0.0,0.0,0.0,-0.041666666666666664,3666.125,-1.4444444444444442,0.7638888888888891,-3.3075973585388274,0.7777777777777781,arshkon_min3
Wipro,0.06818181818181818,0.0,0.0,0.18181818181818182,0.3181818181818182,1570.818181818182,2.075757575757576,1.1161616161616161,-0.9343649748199996,0.8484848484848482,arshkon_min3
Unisys,0.0,0.05,0.0,-0.15000000000000002,0.15000000000000002,-1201.9499999999998,3.0999999999999996,0.65,3.430374522989474,-0.4499999999999993,arshkon_min3
Siri InfoSolutions Inc,0.0,0.0,0.0,0.0,0.36363636363636365,-19.022727272727252,4.943181818181818,0.32954545454545453,3.861691514502577,0.10227272727272707,arshkon_min3
State Farm,0.3333333333333333,0.08333333333333333,0.0,0.0,-0.43333333333333335,53.03333333333285,0.9166666666666661,0.5833333333333334,0.2037280518463631,-0.16666666666666652,arshkon_min3
hackajob,0.10714285714285714,0.019011406844106463,0.0,0.08365019011406843,0.043346007604562725,3265.913307984791,1.2779467680608372,0.7015209125475286,0.21664679811926646,1.0764258555133086,arshkon_min3
myGwork - LGBTQ+ Business Community,-0.08333333333333334,-0.05989583333333333,0.0078125,0.109375,0.328125,2479.09375,0.27083333333333304,1.2109375,1.44897642548431,1.2005208333333335,arshkon_min3
VT Group (VTG),-0.375,0.0,0.05555555555555555,0.0,0.1111111111111111,690.8333333333333,6.111111111111111,-0.4444444444444444,4.669976451859915,0.05555555555555536,arshkon_min3
Jobot,0.16111111111111112,0.01664212076583211,0.0,0.06421207658321061,0.23549337260677466,350.17628865979395,1.5229749631811487,0.5444771723122239,-0.38744661572703115,-0.2179675994108985,arshkon_min3
CACI International Inc,0.18181818181818182,0.07023411371237458,0.0,0.10869565217391304,0.24163879598662208,1287.1688963210709,4.648829431438128,0.15969899665551834,4.253221514895999,0.25,arshkon_min3
Rose International,-0.1,-0.1,0.0,0.1,0.30000000000000004,1504.9666666666662,5.299999999999999,0.7666666666666666,4.017832764957294,0.13333333333333375,arshkon_min3
Apex Systems,-0.03610389610389611,-0.02066590126291619,0.0,0.0845771144278607,0.21393034825870647,4474.656142365098,3.2422502870264065,0.8968618446230388,0.6917151476757639,0.3159203980099501,arshkon_min3
Oracle,-0.08333333333333334,0.0,0.0,0.0,0.10354609929078014,729.4226950354614,0.6113475177304961,0.2879432624113475,-0.03558827389519932,0.0375886524822695,arshkon_min3
